tree
version=v3
num_class=1
num_tree_per_iteration=1
label_index=0
max_feature_idx=8
objective=binary sigmoid:1
feature_names=temp atemp hum casual cnt season yr mnth hr
feature_infos=[0.02:0.97999999999999998] [0:0.98480000000000001] [0:1] [0:361] [1:977] [1:4] [0:1] [1:12] [0:23]
tree_sizes=5996 6034 6246 6045 6046 5930 6041 6158 6034 6158 6036 6037 6045 5939 6152 5942 6045 6052 5947 5940 5943 6060 5845 5835 6059 5834 6569 6571 6673 6559 6674 6560 6765 6569 6555 6572 6864 6476 6785 6892 6464 6784 6879 6787 6767 6977 6785 6987 6785 6666 6783 6982 6785 6880 6783 7090 6585 6895 6896 6671 7098 6576 7105 7015 6776 7113 6993 6896 6589 7007 6687 7092 7014 6586 7116 7302 6581 7012 6677 7217 6924 7092 6799 7210 6595 7005 7128 6380 7813 7916 7805 7209 7817 7820 7404 7114 7715 7417 8033 6687

Tree=0
num_leaves=58
num_cat=0
split_feature=3 4 3 4 3 8 3 8 3 0 8 8 4 4 4 6 8 2 3 4 3 1 2 0 2 3 0 8 4 1 2 7 0 7 2 3 4 4 2 4 6 4 3 7 4 2 3 3 0 4 7 3 0 0 0 2 0
split_gain=1358.32 354.79 190.986 243.071 217.452 248.358 245.594 177.649 130.172 187.71 141.36 88.1074 125.648 82.1562 81.2506 72.0509 70.0451 29.1417 27.1434 38.5239 21.8856 78.2003 20.0863 18.8591 18.6361 14.7298 83.9127 20.1056 7.74175 5.8169 10.9334 3.77665 4.20168 2.92913 2.58184 2.39838 8.88358 2.26534 2.17634 1.79348 1.72954 1.69117 1.45373 6.80326 0.833872 0.561727 0.173568 0.155285 0.116464 0.100555 0.453213 0.0186246 0.207047 2.27374e-13 2.84217e-14 2.84217e-14 7.10543e-15
threshold=113.50000000000001 359.50000000000006 81.500000000000014 159.50000000000003 2.5000000000000004 9.5000000000000018 15.500000000000002 15.500000000000002 39.500000000000007 0.45000000000000007 16.500000000000004 3.5000000000000004 15.500000000000002 790.50000000000011 16.500000000000004 1.0000000180025095e-35 15.500000000000002 0.55500000000000016 133.50000000000003 463.50000000000006 16.500000000000004 0.29545000000000005 0.6150000000000001 0.51000000000000012 0.40500000000000008 72.500000000000014 0.43000000000000005 14.500000000000002 385.50000000000006 0.61365000000000014 0.54500000000000015 4.5000000000000009 0.63000000000000012 10.500000000000002 0.33500000000000008 153.50000000000003 436.50000000000006 322.50000000000006 0.34500000000000003 191.50000000000003 1.0000000180025095e-35 367.50000000000006 60.500000000000007 9.5000000000000018 443.50000000000006 0.52500000000000013 63.500000000000007 153.50000000000003 0.71000000000000008 387.50000000000006 4.5000000000000009 40.500000000000007 0.47000000000000003 0.79000000000000015 0.71000000000000008 0.54500000000000015 0.75000000000000011
decision_type=2 2 2 2 2 2 2 2 2 2 2 2 2 2 2 2 2 2 2 2 2 2 2 2 2 2 2 2 2 2 2 2 2 2 2 2 2 2 2 2 2 2 2 2 2 2 2 2 2 2 2 2 2 2 2 2 2
left_child=1 2 3 4 11 6 -6 -7 20 22 -11 14 -13 18 -1 29 17 23 19 24 39 -22 -10 -17 38 42 -27 -28 -29 55 -31 32 34 35 -20 36 -33 -18 -2 -5 45 -42 49 46 -30 -26 -44 -36 -32 50 -3 54 -53 -37 -51 -4 -48
right_child=13 25 15 8 5 7 -8 -9 9 10 -12 12 -14 -15 -16 16 37 -19 31 -21 21 -23 -24 -25 40 26 27 28 44 30 48 33 -34 -35 47 53 -38 -39 -40 -41 41 -43 43 -45 -46 -47 56 -49 -50 51 -52 52 -54 -55 -56 -57 -58
leaf_value=0.79649856713821754 0.78637310540730876 0.79651673836479731 0.77472671201167376 0.79669193064385579 0.78758204759731343 0.79448314453301405 0.77750288718156346 0.78838865195424324 0.78425557933537515 0.79549118245377581 0.7876803536455943 0.78783897234922129 0.79416892971278796 0.79801949880294376 0.78735104683747659 0.7853143423713419 0.77472671201167376 0.78224051420240603 0.77883720379836852 0.79316683488809581 0.78384128075608372 0.79572569137273741 0.77698085266889338 0.79658167245780365 0.77675217173265376 0.7756972447946433 0.78870238408643578 0.79149751850138816 0.79627253979359847 0.78363277754951233 0.77472671201167376 0.77472671201167376 0.7815204414924608 0.77860884314355205 0.77589135135123721 0.77472671201167376 0.78218040378488018 0.7793852693699278 0.78181582103510372 0.79796067863427889 0.78027261362864275 0.77627956446442514 0.7969607357669769 0.79174836389760184 0.7979371921358368 0.77472671201167376 0.79801949880294376 0.77472671201167376 0.77589135135123721 0.79801949880294376 0.79801949880294376 0.79685485946338019 0.79801949880294376 0.77472671201167376 0.79801949880294376 0.77472671201167376 0.79801949880294376
leaf_weight=177.52276332676411 5.5811267793178541 6.6544203907251385 7.5130552798509616 41.429133400321007 332.93567825853825 212.08281761407852 73.842600464820862 274.1191883534193 33.057443231344223 185.89445349574089 84.14621913433075 155.19825620949268 158.41813704371452 4.722491890192031 28.120292618870735 4.7224918901920381 6.654420390725134 6.6544203907251349 7.29839655756951 5.151809334754943 14.811451837420462 211.43884144723415 13.30884078145027 17.387356504797935 4.9371506124734905 5.151809334754943 7.5130552798509589 5.366468057036399 8.586348891258238 7.2983965575695029 4.2931744456291181 15.670086726546289 5.151809334754943 6.4397616684436789 4.293174445629119 58.172513738274574 5.366468057036399 4.2931744456291199 4.9371506124734879 85.004854023456573 4.5078331679105776 6.4397616684436798 4.7224918901920381 5.5811267793178549 60.748418405652046 11.16225355863571 15.670086726546289 8.586348891258238 4.2931744456291199 92.303250581026077 20.392578616738319 4.293174445629119 34.345395565032959 20.177919894456863 6.8690791130065909 6.6544203907251358 5.7957855015993109
leaf_count=827 26 31 35 193 1551 988 344 1277 154 866 392 723 738 22 131 22 31 31 34 24 69 985 62 81 23 24 35 25 40 34 20 73 24 30 20 271 25 20 23 396 21 30 22 26 283 52 73 40 20 430 95 20 160 94 32 31 27
internal_value=0 0.195233 0.0565407 0.111093 -0.124132 -0.423358 -0.999921 0.0590215 0.60758 0.141902 0.461061 0.390451 0.0568929 -2.66193 0.899145 -1.57098 -0.686915 0.13242 -2.77371 -2.08138 1.02536 0.83914 -1.7169 0.684615 -2.43306 1.24575 0.904091 1.14942 1.30625 -2.7392 -2.32371 -2.99919 -2.65234 -3.08221 -2.85814 -3.12456 -2.82476 -2.83968 -1.3036 1.35859 -2.8723 -2.56564 1.39756 1.20169 1.39581 -3.08083 1.41532 -3.12741 -3.08859 1.43531 1.37956 1.44625 1.42762 -3.20505 1.4535 -3.20505 1.4535
internal_weight=0 2435.09 2151.1 2081.33 1412.24 892.98 406.778 486.202 669.091 316.407 270.041 519.259 313.616 178.596 205.643 69.7641 39.7119 28.7643 173.874 42.7171 352.684 226.25 46.3663 22.1098 37.5653 283.993 87.3661 82.2143 74.7012 30.0522 15.8847 131.156 25.3297 105.827 20.1779 99.387 21.0366 10.9476 10.5183 126.434 27.047 10.9476 196.627 31.7695 69.3348 16.0994 26.1884 12.8795 8.58635 164.858 27.047 137.811 38.6386 78.3504 99.1723 14.1675 21.4659
internal_count=12176 11344 10021 9696 6579 4160 1895 2265 3117 1474 1258 2419 1461 832 958 325 185 134 810 199 1643 1054 216 103 175 1323 407 383 348 140 74 611 118 493 94 463 98 51 49 589 126 51 916 148 323 75 122 60 40 768 126 642 180 365 462 66 100
shrinkage=1


Tree=1
num_leaves=57
num_cat=0
split_feature=3 4 3 4 3 8 3 8 3 0 8 8 4 4 4 6 8 2 3 4 3 1 2 0 2 3 0 8 4 1 2 7 0 7 2 3 4 4 2 4 6 4 3 7 4 2 3 4 7 4 7 3 0 0 0 1
split_gain=1338.58 352.248 188.582 240.918 215.219 245.25 241.201 175.988 129.306 185.449 140.16 87.4511 124.432 80.7343 80.6485 70.6684 68.9073 28.8032 26.4814 37.853 21.7998 77.4866 19.6725 18.698 18.2238 14.6806 82.9281 19.9822 7.706 5.67074 10.687 3.6786 4.10302 2.85362 2.51651 2.33428 8.66881 2.20823 2.13866 1.78907 1.68531 1.65086 1.45026 6.7714 0.83174 0.546792 0.173181 0.155791 0.116541 0.100359 0.452097 0.0185907 0.206583 1.13687e-13 2.84217e-14 7.10543e-15
threshold=113.50000000000001 359.50000000000006 81.500000000000014 159.50000000000003 2.5000000000000004 9.5000000000000018 15.500000000000002 15.500000000000002 39.500000000000007 0.45000000000000007 16.500000000000004 3.5000000000000004 15.500000000000002 790.50000000000011 16.500000000000004 1.0000000180025095e-35 15.500000000000002 0.55500000000000016 133.50000000000003 463.50000000000006 16.500000000000004 0.29545000000000005 0.6150000000000001 0.51000000000000012 0.40500000000000008 72.500000000000014 0.43000000000000005 14.500000000000002 385.50000000000006 0.61365000000000014 0.54500000000000015 4.5000000000000009 0.63000000000000012 10.500000000000002 0.33500000000000008 153.50000000000003 436.50000000000006 322.50000000000006 0.34500000000000003 191.50000000000003 1.0000000180025095e-35 367.50000000000006 60.500000000000007 9.5000000000000018 443.50000000000006 0.52500000000000013 63.500000000000007 508.50000000000006 7.5000000000000009 387.50000000000006 4.5000000000000009 40.500000000000007 0.47000000000000003 0.75000000000000011 0.43000000000000005 0.44695000000000007
decision_type=2 2 2 2 2 2 2 2 2 2 2 2 2 2 2 2 2 2 2 2 2 2 2 2 2 2 2 2 2 2 2 2 2 2 2 2 2 2 2 2 2 2 2 2 2 2 2 2 2 2 2 2 2 2 2 2
left_child=1 2 3 4 11 6 -6 -7 20 22 -11 14 -13 18 -1 29 17 23 19 24 39 -22 -10 -17 38 42 -27 -28 -29 54 -31 32 34 35 -20 36 -33 -18 -2 -5 45 -42 49 46 -30 -26 -44 -36 -32 50 -3 -51 -53 -37 -4 -52
right_child=13 25 15 8 5 7 -8 -9 9 10 -12 12 -14 -15 -16 16 37 -19 31 -21 21 -23 -24 -25 40 26 27 28 44 30 48 33 -34 -35 47 53 -38 -39 -40 -41 41 -43 43 -45 -46 -47 -48 -49 -50 51 55 52 -54 -55 -56 -57
leaf_value=0.0057302930551351369 -0.0043498137108276434 0.005748451817970299 -0.015849995042010411 0.0059235427921141602 -0.0031503240739210324 0.0037177442638176611 -0.013117673779639466 -0.0023494215210038204 -0.0064481699266470335 0.0047239594134226622 -0.0030527391964848554 -0.0028952685171441269 0.0034042547084398569 0.0072510987899162965 -0.0033796026160397498 -0.0053994067770996969 -0.015849995042010425 -0.008441914348814224 -0.011802442080716733 0.0024049711569057702 -0.0068583295739590823 0.0049581545183406336 -0.013631888215317259 0.0058133462475883114 -0.013857082701305968 -0.014895429079544583 -0.0020377757716021016 0.00074201839077043771 0.0055044340772196446 -0.0070647013386249471 -0.014696537749148532 -0.015849995042010418 -0.0091536443317600958 -0.012027628196645259 -0.015855999655954963 -0.015849995042010422 -0.0085013433159594597 -0.011261838175939138 -0.0088617328274462094 0.0071922505501806535 -0.010386111387258385 -0.014322360993639864 0.0061922366627892187 0.00099177371325822488 0.0071687538070208424 -0.015849995042010422 0.0072510987899162965 -0.014692894866679105 -0.015858212500689028 0.0072510987899162965 0.0072510987899162939 0.0060863975749025677 0.0072510987899162965 -0.015849995042010422 -0.015849995042010422 0.0072510987899162965
leaf_weight=177.13835154473782 5.5902999639511091 6.6399654895067242 4.3188813328743008 41.336396351456642 333.33199770748615 211.78486675024033 74.208560943603516 274.36252842843533 33.137985378503799 185.56260380148888 84.243283271789551 155.36804719269276 158.21433958411217 4.7095519602298728 28.15620256960392 4.7321266829967561 6.6942660659551603 6.6756458878517142 7.3309410512447419 5.1471272706985465 14.849833801388739 211.04269184172153 13.3773837685585 17.349159970879555 4.9629976898431805 5.1808004379272452 7.5188402086496344 5.3649630397558203 8.5684889554977399 7.3178788721561423 4.3182312846183759 15.76391686499119 5.16962707042694 6.4690254628658286 8.6359982490539533 49.667135328054428 5.3837057203054419 4.3114417791366577 4.953681692481041 84.77382355928421 4.5255224704742449 6.4746066927909851 4.7114415466785493 5.5790350437164298 60.583853080868721 11.229091465473173 21.407054364681244 4.3187884688377371 4.3176741003990173 98.900591164827347 8.9909628331661242 4.2833003401756278 34.25128698348999 29.152448996901512 9.9334270656108838 11.345738813281057
leaf_count=827 26 31 20 193 1551 988 344 1277 154 866 392 723 738 22 131 22 31 31 34 24 69 985 62 81 23 24 35 25 40 34 20 73 24 30 40 230 25 20 23 396 21 30 22 26 283 52 100 20 20 462 42 20 160 135 46 53
internal_value=0 0.194335 0.0562695 0.110566 -0.123479 -0.420903 -0.993053 0.0587348 0.605242 0.141236 0.459158 0.388789 0.0566165 -2.63547 0.896174 -1.55852 -0.682591 0.1318 -2.74557 -2.06292 1.02221 0.836271 -1.70283 0.68208 -2.4099 1.24245 0.901119 1.14616 1.30294 -2.71158 -2.30205 -2.96752 -2.62602 -3.04919 -2.8287 -3.09085 -2.79584 -2.81052 -1.29391 1.35528 -2.84264 -2.54059 1.39426 1.1984 1.39251 -3.04783 1.41202 -3.09365 -3.05547 1.43201 1.37625 1.44296 1.42433 -3.17 -3.17 1.45022
internal_weight=0 2434.18 2150.86 2080.89 1412.56 893.688 407.541 486.147 668.324 316.321 269.806 518.877 313.582 179.484 205.295 69.9687 39.7626 28.7569 174.775 42.8833 352.003 225.893 46.5154 22.0813 37.7362 283.326 87.2169 82.0361 74.5173 30.2061 15.9538 131.892 25.4554 106.436 20.2857 99.9672 21.1476 11.0057 10.544 126.11 27.1922 11.0001 196.109 31.6975 69.1523 16.1921 26.1185 12.9548 8.63591 164.412 26.9767 137.435 38.5346 78.8196 14.2523 20.3367
internal_count=12176 11344 10021 9696 6579 4160 1895 2265 3117 1474 1258 2419 1461 832 958 325 185 134 810 199 1643 1054 216 103 175 1323 407 383 348 140 74 611 118 493 94 463 98 51 49 589 126 51 916 148 323 75 122 60 40 768 126 642 180 365 66 95
shrinkage=0.005


Tree=2
num_leaves=59
num_cat=0
split_feature=3 4 3 4 3 8 3 8 3 0 8 8 4 4 4 6 8 2 3 4 3 1 2 0 2 3 0 8 4 1 2 7 0 7 2 3 4 4 2 4 6 4 3 7 4 2 3 4 4 4 7 3 0 0 0 2 0 0
split_gain=1319.29 349.729 186.223 238.786 213.012 242.191 236.935 174.343 128.446 183.225 138.972 86.8004 123.228 80.0517 79.3532 69.3279 67.799 28.47 25.8469 37.2005 21.7151 76.781 19.2731 18.5386 17.8272 14.6316 81.9638 19.86 7.67065 5.53116 10.4504 3.58526 4.00851 2.78175 2.45425 2.27327 8.46341 2.15378 2.10195 1.7848 1.64316 1.61227 1.44687 6.73991 0.829672 0.532611 0.17281 0.15165 0.114176 0.100172 0.451017 0.0185585 0.206135 1.13687e-13 2.84217e-14 2.84217e-14 7.10543e-15 7.10543e-15
threshold=113.50000000000001 359.50000000000006 81.500000000000014 159.50000000000003 2.5000000000000004 9.5000000000000018 15.500000000000002 15.500000000000002 39.500000000000007 0.45000000000000007 16.500000000000004 3.5000000000000004 15.500000000000002 16.500000000000004 790.50000000000011 1.0000000180025095e-35 15.500000000000002 0.55500000000000016 133.50000000000003 463.50000000000006 16.500000000000004 0.29545000000000005 0.6150000000000001 0.51000000000000012 0.40500000000000008 72.500000000000014 0.43000000000000005 14.500000000000002 385.50000000000006 0.61365000000000014 0.54500000000000015 4.5000000000000009 0.63000000000000012 10.500000000000002 0.33500000000000008 153.50000000000003 436.50000000000006 322.50000000000006 0.34500000000000003 191.50000000000003 1.0000000180025095e-35 367.50000000000006 60.500000000000007 9.5000000000000018 443.50000000000006 0.52500000000000013 63.500000000000007 508.50000000000006 267.50000000000006 387.50000000000006 4.5000000000000009 40.500000000000007 0.47000000000000003 0.81000000000000016 0.67000000000000015 0.45500000000000007 0.79000000000000015 0.53000000000000014
decision_type=2 2 2 2 2 2 2 2 2 2 2 2 2 2 2 2 2 2 2 2 2 2 2 2 2 2 2 2 2 2 2 2 2 2 2 2 2 2 2 2 2 2 2 2 2 2 2 2 2 2 2 2 2 2 2 2 2 2
left_child=1 2 3 4 11 6 -6 -7 20 22 -11 13 -13 -1 18 29 17 23 19 24 39 -22 -10 -17 38 42 -27 -28 -29 55 -31 32 34 35 -20 36 -33 -18 -2 -5 45 -42 49 46 -30 -26 -44 -36 -32 50 -3 54 -53 -37 -51 -4 -48 -52
right_child=14 25 15 8 5 7 -8 -9 9 10 -12 12 -14 -15 -16 16 37 -19 31 -21 21 -23 -24 -25 40 26 27 28 44 30 48 33 -34 -35 47 53 -38 -39 -40 -41 41 -43 43 -45 -46 -47 56 -49 -50 51 57 52 -54 -55 -56 -57 -58 -59
leaf_value=0.0057140908007136228 -0.0043210276530464622 0.0057322392922363576 -0.015679378023893249 0.0059072335104036668 -0.0031308727950660636 0.0037043757152169306 -0.012989166602847182 -0.0023356135643566303 -0.0064005268222697646 0.0047087845554016879 -0.0030340007449760464 -0.0028776656874177253 0.0033916076407780305 -0.0033584488338734061 0.0072348350772310178 -0.0053615888536049294 -0.01567937802389326 -0.0083734074522073786 -0.011692363280806646 0.0023951252069895515 -0.0068066279836568357 0.0049426707690446939 -0.013495849878710766 0.0057970937904344502 -0.013717687229098646 -0.014740106440039338 -0.0020260359203044497 0.00073851529587792722 0.0054883947886792397 -0.0070109120556267378 -0.01568923301537006 -0.015679378023893256 -0.0090769999383634135 -0.011914480374267886 -0.015685224035802175 -0.01567937802389326 -0.0084321711494822309 -0.011158986179239105 -0.0087884698692010741 0.0071759556158857611 -0.010294526315513251 -0.014175920640538442 0.0061758263118496257 0.00098718409891126904 0.0071524467781391779 -0.01567937802389326 0.0072348350772310169 -0.014540841313954401 -0.014542611656456291 0.0072348350772310178 0.0072348350772310152 0.0060700201622450158 0.0072348350772310178 -0.01567937802389326 0.0072348350772310178 -0.01567937802389326 0.0072348350772310178 0.0072348350772310178
leaf_weight=176.7533852159977 5.5993817150592786 6.6254884153604534 5.4299809038639095 41.243504002690315 333.72491973638535 211.48715144395828 74.567114353179932 274.60402271151543 33.217527002096176 185.23065087199211 84.339523792266846 155.53642684221268 158.01078405976295 28.191794335842133 4.6965707242488852 4.741653621196753 6.7331763207912427 6.6965586543083182 7.3628780841827455 5.1424559354782096 14.887721210718153 210.64629271626472 13.444497525691984 17.310904294252396 4.9882991462945965 5.2091438770294181 7.5245828926563254 5.363464727997779 8.550606966018675 7.3371048271656063 4.3425327092409116 15.85554423928261 5.1871676445007315 6.4977344870567313 8.6862467527389509 64.942571610212326 5.4006882011890402 4.3293792009353638 4.9699608683586121 84.542079091072083 4.5429110527038592 6.508697122335434 4.7003689110279145 5.5769514441490164 60.418781712651253 11.294360280036924 17.07843899726868 4.3420714437961569 4.3417998254299164 85.819155961275101 10.460543885827066 4.2734077572822562 34.156877994537354 14.335149586200712 12.808829247951506 8.9051686823368055 4.2696097493171683 9.8201024234294874
leaf_count=827 26 31 25 193 1551 988 344 1277 154 866 392 723 738 131 22 22 31 31 34 24 69 985 62 81 23 24 35 25 40 34 20 73 24 30 40 299 25 20 23 396 21 30 22 26 283 52 80 20 20 402 49 20 160 66 60 41 20 46
internal_value=0 0.193443 0.0560001 0.110042 -0.122831 -0.418468 -0.986262 0.0584495 0.602918 0.140574 0.457265 0.387135 0.0563416 0.893219 -2.60963 -1.5463 -0.678326 0.131184 -2.7181 -2.04482 1.01909 0.833418 -1.68897 0.67956 -2.38723 1.23918 0.898172 1.14293 1.29965 -2.68461 -2.28084 -2.93665 -2.6003 -3.01703 -2.79996 -3.05801 -2.76761 -2.78206 -1.28435 1.35199 -2.81369 -2.51608 1.39098 1.19514 1.38923 -3.01568 1.40875 -3.06076 -3.02319 1.42875 1.37297 1.4397 1.42106 -3.13588 1.44697 -3.13588 1.44697 1.44697
internal_weight=0 2433.25 2150.6 2080.43 1412.88 894.383 408.292 486.091 667.552 316.232 269.57 518.492 313.547 204.945 180.353 70.1683 39.8117 28.7491 175.656 43.0461 351.32 225.534 46.662 22.0526 37.9036 282.656 87.0666 81.8574 74.3329 30.3566 16.0214 132.61 25.5784 107.032 20.3912 100.534 21.2562 11.0626 10.5693 125.786 27.3343 11.0516 195.59 31.6254 68.9694 16.2827 26.0484 13.0283 8.68433 163.964 26.9061 137.058 38.4303 79.2777 98.628 14.3351 21.348 20.2806
internal_count=12176 11344 10021 9696 6579 4160 1895 2265 3117 1474 1258 2419 1461 958 832 325 185 134 810 199 1643 1054 216 103 175 1323 407 383 348 140 74 611 118 493 94 463 98 51 49 589 126 51 916 148 323 75 122 60 40 768 126 642 180 365 462 66 100 95
shrinkage=0.005


Tree=3
num_leaves=57
num_cat=0
split_feature=3 4 3 4 3 8 3 8 3 0 8 8 4 4 4 6 8 2 3 4 3 1 2 0 2 3 0 8 4 1 2 7 0 7 2 3 4 4 2 4 6 4 3 7 4 2 3 3 2 4 7 3 0 2 0 1
split_gain=1300.44 347.234 183.907 236.675 210.831 239.179 232.79 172.715 127.592 181.037 137.794 86.1551 122.037 79.4602 78.0112 68.0276 66.7192 28.1419 25.2382 36.5657 21.6314 76.0835 18.8876 18.3808 17.4456 14.5827 81.0189 19.7389 7.63571 5.39778 10.2231 3.49634 3.91793 2.71332 2.39488 2.21517 8.26688 2.10186 2.06619 1.78068 1.60299 1.57533 1.44356 6.70877 0.827668 0.519137 0.172452 0.152165 0.112389 0.0999938 0.449972 0.018528 0.205705 1.13687e-13 7.10543e-15 7.10543e-15
threshold=113.50000000000001 359.50000000000006 81.500000000000014 159.50000000000003 2.5000000000000004 9.5000000000000018 15.500000000000002 15.500000000000002 39.500000000000007 0.45000000000000007 16.500000000000004 3.5000000000000004 15.500000000000002 16.500000000000004 790.50000000000011 1.0000000180025095e-35 15.500000000000002 0.55500000000000016 133.50000000000003 463.50000000000006 16.500000000000004 0.29545000000000005 0.6150000000000001 0.51000000000000012 0.40500000000000008 72.500000000000014 0.43000000000000005 14.500000000000002 385.50000000000006 0.61365000000000014 0.54500000000000015 4.5000000000000009 0.63000000000000012 10.500000000000002 0.33500000000000008 153.50000000000003 436.50000000000006 322.50000000000006 0.34500000000000003 191.50000000000003 1.0000000180025095e-35 367.50000000000006 60.500000000000007 9.5000000000000018 443.50000000000006 0.52500000000000013 63.500000000000007 153.50000000000003 0.65500000000000014 387.50000000000006 4.5000000000000009 40.500000000000007 0.47000000000000003 0.63500000000000012 0.63000000000000012 0.61365000000000014
decision_type=2 2 2 2 2 2 2 2 2 2 2 2 2 2 2 2 2 2 2 2 2 2 2 2 2 2 2 2 2 2 2 2 2 2 2 2 2 2 2 2 2 2 2 2 2 2 2 2 2 2 2 2 2 2 2 2
left_child=1 2 3 4 11 6 -6 -7 20 22 -11 13 -13 -1 18 29 17 23 19 24 39 -22 -10 -17 38 42 -27 -28 -29 -4 -31 32 34 35 -20 36 -33 -18 -2 -5 45 -42 49 46 -30 -26 -44 -36 -32 50 -3 -51 -53 -37 -52 -48
right_child=14 25 15 8 5 7 -8 -9 9 10 -12 12 -14 -15 -16 16 37 -19 31 -21 21 -23 -24 -25 40 26 27 28 44 30 48 33 -34 -35 47 53 -38 -39 -40 -41 41 -43 43 -45 -46 -47 55 -49 -50 51 54 52 -54 -55 -56 -57
leaf_value=0.0056979794859332378 -0.0042925129597086234 0.0057161167110028445 -0.015513238025769552 0.0058910202470232442 -0.0031115775233684592 0.0036910585143761793 -0.012863475267726273 -0.0023219041896612421 -0.0063534616149824507 0.0046936758542996506 -0.0030154103125776145 -0.0028601986163642725 0.0033790085956134646 -0.0033374701554465362 0.0072187248389465096 -0.0053241768915093203 -0.015513238025769555 -0.0083059215884704815 -0.011584473962273108 0.0023853165242931317 -0.0067555823384940804 0.0049272580567627806 -0.013362901518981531 0.0057809353908030913 -0.01358150686750615 -0.014588621563909235 -0.0020143754176756273 0.00073502748996330622 0.0054724389356070827 -0.0069578196231368517 -0.014391324496206092 -0.015513238025769552 -0.0090015766714944233 -0.011803622190763205 -0.014381503571508341 -0.015513238025769554 -0.0083640342306896751 -0.011058093187738829 -0.0087163427386314947 0.0071598111141578128 -0.010204565140571784 -0.014032966658264033 0.0061595212839548408 0.00098261514615942663 0.0071362898989062408 -0.015513238025769554 0.0072187248389465044 -0.015524644950060678 -0.015525848147432391 0.0072187248389465096 0.0072187248389465079 0.0060537445923621981 0.0072187248389465096 -0.015513238025769554 0.0072187248389465096 0.0072187248389465096
leaf_weight=176.36786434054375 5.6083724200725538 6.6109910160303142 14.416024804115297 41.150462105870247 334.11444434523582 211.18968641757965 74.918358087539673 274.84365217387676 33.296079576015472 184.8985947072506 84.434946537017822 155.70340593159199 157.80747047066689 28.227069869637489 4.6835494935512534 4.7510733604431215 6.7711631655693036 6.717161923646926 7.3942142426967683 5.1377953290939322 14.925119206309317 210.24967342615128 13.510200530290602 17.272590681910515 5.0130618363618877 5.2368478775024405 7.5302838534116736 5.3619723767042151 8.5327047109603864 7.3560779690742519 4.3650134205818159 15.944997131824495 5.204433560371398 6.5258958935737601 4.3665223568677893 66.83793318271637 5.4174184799194327 4.3469911813735962 4.9859912246465683 84.309626519680023 4.5600020438432711 6.5420423448085785 4.6892752945423188 5.574875980615615 60.253212735056877 11.358080148696898 4.6835494935512569 8.7336148768663389 4.3666301518678665 98.35453936457634 14.689314320683481 4.263497292995452 34.062178134918213 12.887052476406096 5.5351039469242087 16.605311840772629
leaf_count=827 26 31 66 193 1551 988 344 1277 154 866 392 723 738 131 22 22 31 31 34 24 69 985 62 81 23 24 35 25 40 34 20 73 24 30 20 306 25 20 23 396 21 30 22 26 283 52 22 40 20 462 69 20 160 59 26 78
internal_value=0 0.192557 0.0557327 0.109522 -0.122187 -0.416054 -0.979547 0.0581659 0.600609 0.139917 0.455382 0.38549 0.0560683 0.89028 -2.58439 -1.53429 -0.674117 0.130574 -2.69127 -2.02707 1.01598 0.830578 -1.67533 0.677055 -2.36504 1.23593 0.895249 1.13972 1.29638 -2.65827 -2.26006 -2.90654 -2.57514 -2.98568 -2.7719 -3.02602 -2.74005 -2.75427 -1.2749 1.34873 -2.78543 -2.4921 1.38773 1.1919 1.38598 -2.98434 1.40551 -3.02872 -2.99174 1.42552 1.36971 1.43648 1.41783 -3.10265 1.44374 1.44374
internal_weight=0 2432.29 2150.31 2079.95 1413.17 895.066 409.033 486.033 666.775 316.14 269.334 518.106 313.511 204.595 181.201 70.3627 39.859 28.7408 176.517 43.2053 350.635 225.175 46.8063 22.0237 38.0676 281.984 86.915 81.6782 74.1479 30.5037 16.0877 133.312 25.6988 107.613 20.4944 101.087 21.3624 11.1182 10.5944 125.46 27.4732 11.102 195.069 31.553 68.7859 16.3711 25.9781 13.1001 8.73164 163.516 26.8354 136.68 38.3257 79.725 20.2244 21.2889
internal_count=12176 11344 10021 9696 6579 4160 1895 2265 3117 1474 1258 2419 1461 958 832 325 185 134 810 199 1643 1054 216 103 175 1323 407 383 348 140 74 611 118 493 94 463 98 51 49 589 126 51 916 148 323 75 122 60 40 768 126 642 180 365 95 100
shrinkage=0.005


Tree=4
num_leaves=57
num_cat=0
split_feature=3 4 3 4 3 8 3 8 3 0 8 1 4 6 8 8 4 2 3 4 3 1 2 0 2 3 0 8 4 1 2 7 0 7 2 3 4 4 2 4 6 4 3 7 4 2 3 4 0 4 7 3 0 2 0 0
split_gain=1282.03 344.761 181.633 234.585 208.963 260.844 196.876 179.156 126.744 178.883 136.628 84.4844 76.7066 66.766 65.6668 54.8853 52.8555 27.8188 24.6541 35.948 21.5487 75.3938 18.5153 18.2248 17.0783 14.534 80.0929 19.6189 7.60115 5.27026 10.0046 3.4116 3.83106 2.64812 2.33823 2.1598 8.07874 2.0523 2.03134 1.7767 1.56466 1.53993 1.44033 6.67797 0.825725 0.506328 0.172109 0.148281 0.111805 0.0998235 0.448962 0.018499 0.205292 1.13687e-13 2.84217e-14 7.10543e-15
threshold=113.50000000000001 359.50000000000006 81.500000000000014 159.50000000000003 3.5000000000000004 9.5000000000000018 15.500000000000002 15.500000000000002 39.500000000000007 0.45000000000000007 16.500000000000004 0.29545000000000005 790.50000000000011 1.0000000180025095e-35 15.500000000000002 3.5000000000000004 66.500000000000014 0.55500000000000016 133.50000000000003 463.50000000000006 16.500000000000004 0.29545000000000005 0.6150000000000001 0.51000000000000012 0.40500000000000008 72.500000000000014 0.43000000000000005 14.500000000000002 385.50000000000006 0.61365000000000014 0.54500000000000015 4.5000000000000009 0.63000000000000012 10.500000000000002 0.33500000000000008 153.50000000000003 436.50000000000006 322.50000000000006 0.34500000000000003 191.50000000000003 1.0000000180025095e-35 367.50000000000006 60.500000000000007 9.5000000000000018 443.50000000000006 0.52500000000000013 63.500000000000007 508.50000000000006 0.71000000000000008 387.50000000000006 4.5000000000000009 40.500000000000007 0.47000000000000003 0.64500000000000013 0.71000000000000008 0.79000000000000015
decision_type=2 2 2 2 2 2 2 2 2 2 2 2 2 2 2 2 2 2 2 2 2 2 2 2 2 2 2 2 2 2 2 2 2 2 2 2 2 2 2 2 2 2 2 2 2 2 2 2 2 2 2 2 2 2 2 2
left_child=1 2 3 4 11 6 -6 -7 20 22 -11 16 18 29 17 -13 -1 23 19 24 39 -22 -10 -15 38 42 -27 -28 -29 -4 -31 32 34 35 -20 36 -33 -16 -2 -5 45 -42 49 46 -30 -26 -44 -36 -32 50 -3 54 -53 -37 -51 -48
right_child=12 25 13 8 5 7 -8 -9 9 10 -12 15 -14 14 37 -17 -18 -19 31 -21 21 -23 -24 -25 40 26 27 28 44 30 48 33 -34 -35 47 53 -38 -39 -40 -41 41 -43 43 -45 -46 -47 55 -49 -50 51 -52 52 -54 -55 -56 -57
leaf_value=-0.0015026535982988159 -0.0042642654199981497 0.0057000841039598757 -0.015351402711634819 0.0058749023256750091 -0.0035829518522256035 0.0036700801878761171 -0.012740506414339634 -0.0026389821428643109 -0.0063069630275021573 0.0046786328358160772 -0.0029969666513516785 0.0053412187877528673 0.0072027657150943126 -0.0052871645201007754 -0.015351402711634826 0.0014137155614446378 0.0052815339926650193 -0.0082394312708587939 -0.011478705852787249 0.0023755455330934584 -0.0067051784647008082 0.00491191541810998 -0.013232936082430724 0.0057648683304667644 -0.013448432027873276 -0.014440836029340511 -0.0020027951358766987 0.00073155583613156486 0.0054565669303431727 -0.0069054103053507966 -0.015369538839143153 -0.015351402711634819 -0.0089273426189310674 -0.011694978913893567 -0.015362516259852398 -0.015351402711634822 -0.0082969100220806717 -0.010959101956357981 -0.0086453228964991444 0.0071438148694230146 -0.010116184701045314 -0.013893373654498355 0.006143319846495676 0.00097806537397297517 0.0071202794125284274 -0.015351402711634822 0.0072027657150943118 -0.014236991350547699 -0.014240947282479969 0.0072027657150943126 0.0072027657150943126 0.0060375697200743443 0.0072027657150943126 -0.015351402711634822 0.0072027657150943126 0.0072027657150943126
leaf_weight=222.01297309994698 5.6172736287116987 6.5964742153883007 14.494959622621538 41.057273536920547 266.56528919935226 203.42157031595707 75.262379288673401 251.81691347062588 33.373654574155807 184.56646111607552 84.529557347297668 158.23314578831196 4.6704899072647086 4.7603878676891389 6.8082386106252653 203.16766235232353 32.974212616682053 6.7374593913555136 7.4249571263790193 5.1331454515457144 14.962032929062842 209.85286332666874 13.574511259794233 17.234222754836082 5.0372926145792034 5.2639206647872916 7.5359425693750373 5.3604863584041587 8.5147821903228742 7.3748008310794857 4.389728978276251 16.032303825020794 5.2214287519454947 6.5535168349742881 8.7815351635217649 68.08238610625267 5.4338991641998282 4.3642815947532654 5.0017755031585693 84.076501250267029 4.5767991989851016 6.5746517479419708 4.6781613528728547 5.5728086531162253 60.087167233228683 11.420271217823027 16.983599662780765 4.388733595609664 4.3881243914365768 91.286848187446594 20.168024599552155 4.2535695433616629 33.967199325561523 12.079133018851278 6.7934398651123038 4.2458999156951895
leaf_count=1036 26 31 66 193 1236 953 344 1169 154 866 392 741 22 22 31 946 154 31 34 24 69 985 62 81 23 24 35 25 40 34 20 73 24 30 40 310 25 20 23 396 21 30 22 26 283 52 80 20 20 430 95 20 160 55 32 20
internal_value=0 0.191678 0.055467 0.109005 -0.121548 -0.45967 -1.11985 0.0360396 0.598313 0.139265 0.453508 0.315686 -2.55973 -1.52249 -0.669965 0.626661 -0.125068 0.129968 -2.66507 -2.00966 1.01289 0.827753 -1.66191 0.674566 -2.34331 1.23272 0.892351 1.13653 1.29314 -2.63253 -2.2397 -2.87716 -2.55053 -2.95511 -2.7445 -2.99484 -2.71313 -2.72713 -1.26557 1.3455 -2.75783 -2.46863 1.38451 1.18868 1.38276 -2.95379 1.40229 -2.99749 -2.96107 1.42232 1.36648 1.43328 1.41462 -3.07028 1.44055 1.44055
internal_weight=0 2431.31 2150 2079.45 1413.45 797.066 341.828 455.238 665.993 316.044 269.096 616.388 182.03 70.5522 39.9046 361.401 254.987 28.7321 177.359 43.3612 349.949 224.815 46.9482 21.9946 38.2281 281.308 86.7623 81.4984 73.9624 30.6476 16.1527 133.998 25.8167 108.181 20.5952 101.628 21.4662 11.1725 10.619 125.134 27.609 11.1515 194.546 31.4805 68.6019 16.4576 25.9077 13.1703 8.77785 163.066 26.7645 136.301 38.2208 80.1615 98.0803 21.2295
internal_count=12176 11344 10021 9696 6579 3702 1580 2122 3117 1474 1258 2877 832 325 185 1687 1190 134 810 199 1643 1054 216 103 175 1323 407 383 348 140 74 611 118 493 94 463 98 51 49 589 126 51 916 148 323 75 122 60 40 768 126 642 180 365 462 100
shrinkage=0.005


Tree=5
num_leaves=56
num_cat=0
split_feature=3 4 3 4 3 8 3 8 3 0 8 8 4 4 4 6 8 2 3 4 3 1 2 0 2 3 0 8 4 1 2 7 0 7 2 3 4 4 2 4 6 4 3 7 4 2 3 3 7 4 7 3 0 0 0
split_gain=1264.02 342.312 179.399 232.516 206.873 233.656 224.629 169.529 125.903 176.763 135.472 85.1479 120.732 78.9447 75.438 65.5413 64.6407 27.5006 24.0933 35.3467 21.4671 74.7118 18.1556 18.0703 16.7246 14.4853 79.1851 19.5 7.56698 5.14827 9.7946 3.33077 3.74773 2.58597 2.28415 2.107 7.89854 2.00498 1.99736 1.77285 1.52808 1.506 1.43717 6.64752 0.823844 0.494144 0.17178 0.148814 0.110807 0.0996614 0.447987 0.0184716 0.204895 1.42109e-14 7.10543e-15
threshold=113.50000000000001 359.50000000000006 81.500000000000014 159.50000000000003 2.5000000000000004 9.5000000000000018 15.500000000000002 15.500000000000002 39.500000000000007 0.45000000000000007 16.500000000000004 3.5000000000000004 15.500000000000002 16.500000000000004 790.50000000000011 1.0000000180025095e-35 15.500000000000002 0.55500000000000016 133.50000000000003 463.50000000000006 16.500000000000004 0.29545000000000005 0.6150000000000001 0.51000000000000012 0.40500000000000008 72.500000000000014 0.43000000000000005 14.500000000000002 385.50000000000006 0.61365000000000014 0.54500000000000015 4.5000000000000009 0.63000000000000012 10.500000000000002 0.33500000000000008 153.50000000000003 436.50000000000006 322.50000000000006 0.34500000000000003 191.50000000000003 1.0000000180025095e-35 367.50000000000006 60.500000000000007 9.5000000000000018 443.50000000000006 0.52500000000000013 63.500000000000007 153.50000000000003 7.5000000000000009 387.50000000000006 4.5000000000000009 40.500000000000007 0.47000000000000003 0.53000000000000014 0.71000000000000008
decision_type=2 2 2 2 2 2 2 2 2 2 2 2 2 2 2 2 2 2 2 2 2 2 2 2 2 2 2 2 2 2 2 2 2 2 2 2 2 2 2 2 2 2 2 2 2 2 2 2 2 2 2 2 2 2 2
left_child=1 2 3 4 11 6 -6 -7 20 22 -11 13 -13 -1 18 29 17 23 19 24 39 -22 -10 -17 38 42 -27 -28 -29 -4 -31 32 34 35 -20 36 -33 -18 -2 -5 45 -42 49 46 -30 -26 -44 -36 -32 50 -3 -51 -53 -52 -48
right_child=14 25 15 8 5 7 -8 -9 9 10 -12 12 -14 -15 -16 16 37 -19 31 -21 21 -23 -24 -25 40 26 27 28 44 30 48 33 -34 -35 47 -37 -38 -39 -40 -41 41 -43 43 -45 -46 -47 54 -49 -50 51 53 52 -54 -55 -56
leaf_value=0.0056733969564380501 -0.0042362814375080018 0.0056841407926858023 -0.015193707090948893 0.0058588784985589629 -0.003077826017524478 0.003665011995723525 -0.01262016890341127 -0.0022946844222876922 -0.0062610205120753812 0.0046636547330967592 -0.0029786679430484188 -0.0028437077840483167 0.003363014223407118 -0.0033339952586411942 0.0071869566689423186 -0.0052505450879896829 -0.0151937070909489 -0.0081739147370288971 -0.011374995384308676 0.0023658111281477396 -0.0066554045702510115 0.004896642590250644 -0.013105854563051061 0.0057488925783986313 -0.013318354280355828 -0.014296612621320195 -0.0019912927645742186 0.00072809958156401392 0.0054407761550324838 -0.0068536705099435302 -0.014095334409818692 -0.015193707090948897 -0.0088542686574888257 -0.011588486675202122 -0.014085404489779421 -0.015193707090948898 -0.0082307729733191691 -0.010861957207138265 -0.0085753837549226476 0.0071279655263155354 -0.010029340777513371 -0.013757023385236641 0.0061272222098587535 0.00097353584010009158 0.0071044146491012067 -0.015193707090948898 0.007186956668942316 -0.015209997240896649 -0.015215998802517314 0.0071869566689423186 0.0071869566689423152 0.00602149369576828 0.0071869566689423186 0.0071869566689423186 0.0071869566689423186
leaf_weight=175.77380782365799 5.6260857284069044 6.5819380134344128 14.571980595588686 40.963949799537659 334.79480519890785 210.60529659688473 75.599275350570679 275.31894049048424 33.450261175632477 184.23426300287247 84.62336790561676 155.86090278625488 157.54838544130325 28.232857599854469 4.6573922932147971 4.7695974707603517 6.8444151282310468 6.7574547529220572 7.4551143348217073 5.1285066604614249 14.998468548059462 209.45587709546089 13.637447267770765 17.195801720023155 5.0609983354806927 5.2903704643249503 7.5415600836276999 5.3590066730976096 8.4968417882919294 7.3932764530181911 4.4105268716812116 16.117493689060215 5.2381564378738394 6.5806035697460166 4.4120563119649878 80.587468445301056 5.4501336067914954 4.3812543153762817 5.0173167884349823 83.842720985412598 4.5933059602975863 6.6065351665019989 4.6670277416706147 5.5707494616508475 59.920657858252525 11.480954408645628 11.431781083345415 8.8266765326261503 4.4124500751495361 97.805238157510757 10.373282834887506 4.2436257004737845 33.871943950653076 9.7381838858127576 9.7381838858127576
leaf_count=827 26 31 66 193 1551 988 344 1277 154 866 392 723 738 131 22 22 31 31 34 24 69 985 62 81 23 24 35 25 40 34 20 73 24 30 20 365 25 20 23 396 21 30 22 26 283 52 54 40 20 462 49 20 160 46 46
internal_value=0 0.190803 0.0552027 0.10849 -0.120913 -0.411554 -0.967127 0.0576637 0.596031 0.138617 0.451644 0.382563 0.0552725 0.885369 -2.53563 -1.51091 -0.665867 0.129367 -2.63948 -1.99258 1.00981 0.824943 -1.64868 0.672092 -2.32202 1.22953 0.889476 1.13336 1.28993 -2.60737 -2.21973 -2.8485 -2.52646 -2.9253 -2.71773 -2.96444 -2.68684 -2.70061 -1.25635 1.34229 -2.73087 -2.44564 1.38132 1.18548 1.37956 -2.92399 1.39911 -2.96704 -2.93116 1.41914 1.36328 1.43011 1.41144 1.43739 1.43739
internal_weight=0 2430.31 2149.68 2078.94 1413.73 896.318 410.394 485.924 665.206 315.945 268.858 517.416 313.409 204.007 182.839 70.7368 39.9485 28.7229 178.181 43.5137 349.261 224.454 47.0877 21.9654 38.3852 280.63 86.6084 81.3181 73.7765 30.7882 16.2163 134.668 25.932 108.736 20.6938 102.155 21.5676 11.2257 10.6434 124.807 27.7418 11.1998 194.022 31.4077 68.4175 16.542 25.837 13.2387 8.82298 162.614 26.6934 135.921 38.1156 20.1115 21.17
internal_count=12176 11344 10021 9696 6579 4160 1895 2265 3117 1474 1258 2419 1461 958 832 325 185 134 810 199 1643 1054 216 103 175 1323 407 383 348 140 74 611 118 493 94 463 98 51 49 589 126 51 916 148 323 75 122 60 40 768 126 642 180 95 100
shrinkage=0.005


Tree=6
num_leaves=57
num_cat=0
split_feature=3 4 3 4 3 8 3 8 3 0 8 1 4 6 8 8 4 2 3 4 3 1 0 2 2 3 0 8 4 1 2 7 0 7 2 3 4 2 4 4 6 4 3 7 4 2 3 3 0 4 7 3 0 0 0 2
split_gain=1246.42 339.885 177.206 230.466 204.963 254.377 189.94 175.868 125.068 174.676 134.327 83.7853 74.2039 64.3522 63.6402 54.1909 52.3774 27.1872 23.5546 34.7611 21.3864 74.0375 17.9175 17.808 16.3838 14.4369 78.2949 19.3821 7.53318 5.03151 9.59254 3.25364 3.66773 2.52668 2.2325 2.05662 7.72585 1.96424 1.95977 1.76913 1.49316 1.47347 1.4341 6.61741 0.822021 0.482548 0.171464 0.145163 0.109173 0.0995073 0.447045 0.0184458 0.204515 2.84217e-14 2.84217e-14 1.42109e-14
threshold=113.50000000000001 359.50000000000006 81.500000000000014 159.50000000000003 3.5000000000000004 9.5000000000000018 15.500000000000002 15.500000000000002 39.500000000000007 0.45000000000000007 16.500000000000004 0.29545000000000005 790.50000000000011 1.0000000180025095e-35 15.500000000000002 3.5000000000000004 66.500000000000014 0.55500000000000016 133.50000000000003 463.50000000000006 16.500000000000004 0.29545000000000005 0.51000000000000012 0.6150000000000001 0.40500000000000008 72.500000000000014 0.43000000000000005 14.500000000000002 385.50000000000006 0.61365000000000014 0.54500000000000015 4.5000000000000009 0.63000000000000012 10.500000000000002 0.33500000000000008 153.50000000000003 436.50000000000006 0.34500000000000003 322.50000000000006 191.50000000000003 1.0000000180025095e-35 367.50000000000006 60.500000000000007 9.5000000000000018 443.50000000000006 0.52500000000000013 63.500000000000007 153.50000000000003 0.71000000000000008 387.50000000000006 4.5000000000000009 40.500000000000007 0.47000000000000003 0.51000000000000012 0.73000000000000009 0.50500000000000012
decision_type=2 2 2 2 2 2 2 2 2 2 2 2 2 2 2 2 2 2 2 2 2 2 2 2 2 2 2 2 2 2 2 2 2 2 2 2 2 2 2 2 2 2 2 2 2 2 2 2 2 2 2 2 2 2 2 2
left_child=1 2 3 4 11 6 -6 -7 20 23 -11 16 18 29 17 -13 -1 22 19 24 39 -22 -15 -10 37 42 -27 -28 -29 53 -31 32 34 35 -20 36 -33 -2 -16 -5 45 -42 49 46 -30 -26 -44 -36 -32 50 -3 54 -53 55 -51 -4
right_child=12 25 13 8 5 7 -8 -9 9 10 -12 15 -14 14 38 -17 -18 -19 31 -21 21 -23 -24 -25 40 26 27 28 44 30 48 33 -34 -35 47 -37 -38 -39 -40 -41 41 -43 43 -45 -46 -47 -48 -49 -50 51 -52 52 -54 -55 -56 -57
leaf_value=-0.0015002666138395969 -0.0042085578693823135 0.0056682844865867509 -0.015039997453871218 0.0058429481765444394 -0.0035408893167211746 0.0036437021235164518 -0.012502379081040722 -0.0026095117342486043 -0.0062156230595015018 0.0046487412350933698 -0.0029605123713221894 0.0053156111303750775 0.0071712955446725669 -0.0052143119360391847 -0.015039997453871226 0.0014089700031382315 0.0052608898227839576 -0.0081093471249538834 -0.011273277904321704 0.0023561140626425737 -0.0066062481514698847 0.0048814379672878164 0.0057330056662997309 -0.012981559687722554 -0.013191172493205908 -0.014155825818965368 -0.0019798689102665766 0.00072465857915694298 0.0054250666440214187 -0.0068025849322116928 -0.015064512784327308 -0.015039997453871221 -0.0087823262367470716 -0.011484076910469774 -0.013947890572219755 -0.015039997453871223 -0.0081656010189043622 -0.008506499542917427 -0.010766604804285762 0.0071122603231739733 -0.0099439894435923021 -0.01362380397274505 0.006111226343581723 0.00096902627964018146 0.0070886925495053255 -0.015039997453871223 0.0071712955446725669 -0.015055879075536611 -0.013954905897033267 0.0071712955446725669 0.0071712955446725669 0.0060055161871251849 0.0071712955446725669 -0.015039997453871223 0.0071712955446725669 -0.015039997453871221
leaf_weight=222.04335854947567 5.6348094940185529 6.5673847198486355 5.1042967140674609 40.870493769645691 267.22153508663177 202.84954762458801 75.929133415222168 252.27812844514847 33.5259108543396 183.90201327204704 84.716384053230286 157.70027488470078 4.6442586183547965 4.7787038087844911 6.8797042667865735 203.08251968026161 32.887107849121094 6.7771521657705298 7.4846939742565217 5.1238782405853263 15.034430176019667 209.05872941017151 17.15733240544796 13.699026107788084 5.0841861963272121 5.3162058591842642 7.5471369177103034 5.3575329482555381 8.4788841009139997 7.4115073680877712 4.4348859339952451 16.200593918561939 5.2546191215515128 6.6071628034114829 4.433223918080329 81.002969592809677 5.4661244153976432 5.0326181650161743 4.3979135155677795 83.608303427696228 4.6095263957977313 6.6377024352550507 4.6558754444122377 5.5686980187892905 59.753705695271492 11.540149092674254 21.110266447067261 8.8723296225070936 4.4321425706148148 93.09627503156662 20.054753124713898 4.2336663603782645 33.776426315307617 4.8823707699775687 4.4331559538841239 4.6604448258876801
leaf_count=1036 26 31 23 193 1236 953 344 1169 154 866 392 741 22 22 31 946 154 31 34 24 69 985 81 62 23 24 35 25 40 34 20 73 24 30 20 365 25 23 20 396 21 30 22 26 283 52 100 40 20 441 95 20 160 22 21 21
internal_value=0 0.189935 0.0549406 0.10798 -0.120283 -0.454652 -1.10476 0.0355068 0.593762 0.137973 0.44979 0.313231 -2.51206 -1.49952 -0.661823 0.623317 -0.12561 0.128771 -2.61446 -1.97582 1.00676 0.822146 0.669633 -1.63566 -2.30116 1.22636 0.886625 1.13022 1.28674 -2.58277 -2.20016 -2.82053 -2.50291 -2.89623 -2.69157 -2.9348 -2.66114 -1.24724 -2.6747 1.3391 -2.70453 -2.42314 1.37815 1.18231 1.37639 -2.89492 1.39595 -2.93734 -2.90198 1.416 1.3601 1.42698 1.40829 -3.008 1.43426 -3.008
internal_weight=0 2429.27 2149.32 2078.41 1413.99 798.278 343.151 455.128 664.415 315.843 268.618 615.713 183.629 70.9165 39.9908 360.783 254.93 28.7132 178.985 43.6629 348.572 224.093 21.936 47.2249 38.539 279.95 86.4535 81.1373 73.5901 30.9256 16.2785 135.322 26.0449 109.277 20.7902 102.67 21.6667 10.6674 11.2776 124.479 27.8716 11.2472 193.497 31.3348 68.2326 16.6243 25.7661 13.3056 8.86703 162.162 26.6221 135.54 38.0101 14.6471 97.5294 9.76474
internal_count=12176 11344 10021 9696 6579 3702 1580 2122 3117 1474 1258 2877 832 325 185 1687 1190 134 810 199 1643 1054 103 216 175 1323 407 383 348 140 74 611 118 493 94 463 98 49 51 589 126 51 916 148 323 75 122 60 40 768 126 642 180 66 462 44
shrinkage=0.005


Tree=7
num_leaves=58
num_cat=0
split_feature=3 4 3 4 3 8 3 8 3 0 8 8 4 4 4 6 8 0 3 0 2 3 4 0 2 3 0 8 4 1 2 7 0 0 2 3 4 2 4 4 6 4 3 7 4 2 3 4 7 4 7 8 0 0 3 0 2
split_gain=1229.2 337.48 175.051 228.437 202.998 228.295 216.912 166.406 124.337 144.767 112.967 84.1545 119.442 78.4336 73.003 63.1973 62.6642 31.731 29.8998 79.9628 26.8784 23.0368 34.1908 17.7662 16.0552 14.3886 77.4218 19.2654 7.49976 4.91971 9.39807 3.18001 3.59092 2.48421 2.18313 2.00695 7.15373 1.93194 1.91655 1.76555 1.45979 1.44225 1.4311 6.58763 0.820258 0.471506 0.171162 0.145706 0.108258 0.099361 0.446136 0.0184677 0.0666339 0.000661497 3.86457e-06 7.10543e-15 7.10543e-15
threshold=113.50000000000001 359.50000000000006 81.500000000000014 159.50000000000003 2.5000000000000004 9.5000000000000018 15.500000000000002 15.500000000000002 46.500000000000007 0.55000000000000016 16.500000000000004 3.5000000000000004 15.500000000000002 16.500000000000004 790.50000000000011 1.0000000180025095e-35 15.500000000000002 0.41000000000000009 16.500000000000004 0.33000000000000007 0.55500000000000016 133.50000000000003 463.50000000000006 0.51000000000000012 0.40500000000000008 72.500000000000014 0.43000000000000005 14.500000000000002 385.50000000000006 0.61365000000000014 0.54500000000000015 4.5000000000000009 0.63000000000000012 0.51000000000000012 0.33500000000000008 153.50000000000003 436.50000000000006 0.34500000000000003 322.50000000000006 191.50000000000003 1.0000000180025095e-35 367.50000000000006 60.500000000000007 9.5000000000000018 443.50000000000006 0.52500000000000013 63.500000000000007 508.50000000000006 7.5000000000000009 387.50000000000006 4.5000000000000009 17.500000000000004 0.43000000000000005 0.57000000000000017 40.500000000000007 0.53000000000000014 0.64500000000000013
decision_type=2 2 2 2 2 2 2 2 2 2 2 2 2 2 2 2 2 2 2 2 2 2 2 2 2 2 2 2 2 2 2 2 2 2 2 2 2 2 2 2 2 2 2 2 2 2 2 2 2 2 2 2 2 2 2 2 2
left_child=1 2 3 4 11 6 -6 -7 18 17 -11 13 -13 -1 21 29 20 -10 39 -20 23 22 24 -17 37 42 -27 -28 -29 -4 -31 32 34 -33 -23 36 -35 -2 -18 -5 45 -42 49 46 -30 -26 -44 -36 -32 50 -3 54 -53 -37 -51 -52 -48
right_child=14 25 15 8 5 7 -8 -9 9 10 -12 12 -14 -15 -16 16 38 -19 19 -21 -22 31 -24 -25 40 26 27 28 44 30 48 33 -34 35 47 53 -38 -39 -40 -41 41 -43 43 -45 -46 -47 56 -49 -50 51 55 52 -54 -55 -56 -57 -58
leaf_value=0.0056490659580048916 -0.0041810903714635042 0.005652515550324159 -0.014890126042110954 0.0058271085389146569 -0.0030445740976901524 0.0036391615718328408 -0.012387054935049244 -0.0022678452515363661 -0.010619381570050197 0.0049792296821886831 -0.0037580602255597568 -0.0028273301586345797 0.0033471107649507832 -0.0033304393733325569 0.0071557800982240075 -0.0051784583936372239 -0.014890126042110959 -0.0034830365728326647 -0.0045110830520755044 0.0045783252105737453 -0.0080457089585166588 -0.011173498646407569 0.0023464528989222948 0.0057172069940275702 -0.01306678895032457 -0.014018352302048606 -0.0019685219692897092 0.00072123341488855672 0.0054094374046674857 -0.0067521428300203858 -0.013816166641083562 -0.011428982440522014 -0.0087114860439758603 -0.014893712973859845 -0.014910827890806477 -0.014943648326559039 -0.0083746726537989001 -0.0084386445315653754 -0.010672995221110076 0.0070966983066808919 -0.0098600928624600192 -0.013493607561668369 0.0060953304514850121 0.00096453564916934847 0.0070731127566225332 -0.014890126042110957 0.0071557800982240049 -0.013803510008590236 -0.014918443337296385 0.0071557800982240075 0.0071557800982240049 0.0066923045031494393 0.0071560484280845972 -0.014890896892039252 0.0071584026404552985 0.0071557800982240075 0.0071557800982240075
leaf_weight=175.17835180461407 5.6434464752674085 6.5528143346309689 14.720379352569582 40.776914075016975 335.4634864628315 210.02198296785355 76.252045750617981 275.78689542412758 24.974102899432182 128.66839584708214 51.92363977432251 156.01711675524712 157.28950321674347 28.238674312829971 4.6310895383357993 4.7877078652381959 6.9141175746917707 41.395043969154358 26.619165822863579 265.88925370573997 6.7965539395809165 7.5137016177177491 5.1192612648010245 17.118816018104553 5.1068623661994961 5.3414343595504752 7.5526725500822058 5.3560655564069739 8.4609103202819806 7.4294961094856289 4.4534967541694623 6.8736016899347296 5.2708207368850699 16.056666329503063 8.915304094552992 6.4564695060253134 5.7029809206724158 5.0476820319890976 4.4142627716064453 83.373278081417084 4.6254636347293872 6.6681620478630066 4.644705116748816 5.5666547119617453 59.586314961314201 11.597874641418455 16.419317454099659 4.455446481704711 4.4565247893333435 79.570538431406021 10.314699426293375 10.739790692925451 27.787898272275925 74.715147688984871 17.058995917439461 9.6831872165203077 4.6310895383357993
leaf_count=827 26 31 66 193 1551 988 344 1277 114 607 240 723 738 131 22 22 31 193 123 1251 31 34 24 81 23 24 35 25 40 34 20 31 24 72 40 29 26 23 20 396 21 30 22 26 283 52 78 20 20 378 49 51 132 335 81 46 22
internal_value=0 0.189072 0.0546798 0.107472 -0.119656 -0.407124 -0.954971 0.0571673 0.591507 0.0292737 0.493419 0.379661 0.0544856 0.880503 -2.48902 -1.48833 -0.657831 -1.23368 0.924754 0.750232 0.12818 -2.59001 -1.95937 0.667188 -2.28073 1.22322 0.883797 1.12709 1.28357 -2.55872 -2.18097 -2.79321 -2.47985 -2.86785 -2.666 -2.90672 -2.63703 -1.23825 -2.64937 1.33594 -2.67879 -2.40109 1.37502 1.17915 1.37325 -2.86654 1.39282 -2.90837 -2.8735 1.41288 1.35695 1.42387 1.40536 -2.97902 1.43125 1.43116 1.43116
internal_weight=0 2428.23 2148.96 2077.87 1414.25 897.524 411.716 485.809 663.62 246.961 180.592 516.724 313.307 203.417 184.4 71.0914 40.0315 66.3691 416.659 292.508 28.7031 179.769 43.8088 21.9065 38.6895 279.267 86.2974 80.956 73.4033 31.0599 16.3395 135.96 26.1553 109.805 20.8845 102.931 21.7596 10.6911 11.3284 124.15 27.9984 11.2936 192.97 31.2618 68.0472 16.7047 25.6951 13.3708 8.91002 161.708 26.5507 135.157 38.5277 81.1716 96.6295 19.9979 21.0504
internal_count=12176 11344 10021 9696 6579 4160 1895 2265 3117 1154 847 2419 1461 958 832 325 185 307 1963 1374 134 810 199 103 175 1323 407 383 348 140 74 611 118 493 94 462 98 49 51 589 126 51 916 148 323 75 122 60 40 768 126 642 183 364 459 95 100
shrinkage=0.005


Tree=8
num_leaves=57
num_cat=0
split_feature=3 4 3 4 3 8 3 8 3 0 8 1 4 6 8 8 4 2 3 4 3 1 1 2 2 3 0 8 4 1 2 6 7 0 0 7 2 3 4 4 4 3 7 0 4 2 3 4 4 7 3 0 0 8 0 0
split_gain=1212.38 336.878 163.497 226.423 201.05 248.109 183.391 172.643 123.556 171.153 132.429 83.0929 74.2097 62.8901 62.5375 53.5077 51.9037 28.292 26.4112 38.8157 21.2041 72.8897 17.7369 17.5154 17.4023 12.9051 73.8141 19.26 5.62818 5.15307 9.41449 3.69529 3.10964 3.51713 2.77925 2.42962 2.13594 1.96427 7.40862 1.8512 1.7621 1.42817 6.55818 1.41247 0.843028 0.377333 0.170874 0.142269 0.099222 0.44526 0.0184983 0.204672 1.7647e-05 1.62717e-07 7.10543e-15 7.10543e-15
threshold=112.50000000000001 359.50000000000006 81.500000000000014 159.50000000000003 3.5000000000000004 9.5000000000000018 15.500000000000002 15.500000000000002 39.500000000000007 0.45000000000000007 16.500000000000004 0.29545000000000005 790.50000000000011 1.0000000180025095e-35 15.500000000000002 3.5000000000000004 66.500000000000014 0.55500000000000016 133.50000000000003 482.50000000000006 16.500000000000004 0.29545000000000005 0.46210000000000007 0.6150000000000001 0.39500000000000007 72.500000000000014 0.43000000000000005 14.500000000000002 385.50000000000006 0.61365000000000014 0.54500000000000015 1.0000000180025095e-35 4.5000000000000009 0.63000000000000012 0.67000000000000015 10.500000000000002 0.33500000000000008 153.50000000000003 436.50000000000006 322.50000000000006 191.50000000000003 60.500000000000007 9.5000000000000018 0.65000000000000013 443.50000000000006 0.52500000000000013 63.500000000000007 508.50000000000006 387.50000000000006 4.5000000000000009 40.500000000000007 0.47000000000000003 0.57000000000000017 17.500000000000004 0.79000000000000015 0.49000000000000005
decision_type=2 2 2 2 2 2 2 2 2 2 2 2 2 2 2 2 2 2 2 2 2 2 2 2 2 2 2 2 2 2 2 2 2 2 2 2 2 2 2 2 2 2 2 2 2 2 2 2 2 2 2 2 2 2 2 2
left_child=1 2 3 4 11 6 -6 -7 20 23 -11 16 18 29 17 -13 -1 22 19 24 40 -22 -15 -10 43 41 -27 -28 -29 -4 -31 45 33 36 -33 37 -20 38 -34 -16 -5 48 46 -2 -30 -26 -43 -38 49 -3 53 -52 -39 -50 -48 -51
right_child=12 25 13 8 5 7 -8 -9 9 10 -12 15 -14 14 39 -17 -18 -19 32 -21 21 -23 -24 -25 31 26 27 28 44 30 -32 34 35 -35 -36 -37 47 52 -40 -41 -42 42 -44 -45 -46 -47 54 -49 50 55 51 -53 -54 -55 -56 -57
leaf_value=-0.0014978605039347767 -0.0072641338173311757 0.0056368307773725602 -0.014743951344136511 0.005811359831422969 -0.0034994712337498559 0.003617521227094246 -0.012274115476741962 -0.0025804576140128176 -0.0061278505505655114 0.0046216336619900504 -0.0029334239099913406 0.0052902507044280513 0.0071404708175065437 -0.0053082519427808308 -0.014743951344136514 0.0014042404381796833 0.0052403925245549047 -0.0079829777941383788 -0.01107559559686226 0.004889560517627815 -0.006525642620558888 0.0048532422461019728 0.0060033774329089707 -0.012819905930170735 -0.013217141480917363 -0.013843565383114351 -0.0024053884476105086 0.0014181555478995742 0.0053483323964996542 -0.0064378424740489607 -0.014199095618713256 -0.012420183914288944 -0.014744842910225073 -0.0086417231616996888 -0.0076782646601124974 -0.011273546203783206 -0.014764145932130523 -0.014752275727152027 -0.0080359331639962318 -0.01058107676494251 0.0070812772207249838 0.0060795338449660934 0.00096006493976854418 -0.0036651947836965678 0.0070567713064353266 -0.01476490178421766 0.0071404093944413809 -0.013672493589612334 0.0071404093944413818 0.0071404093944413792 0.0059711444261455991 0.007140406337461277 -0.014743944413978206 0.0071409403937851392 0.0071404093944413818 0.0071404093944413818
leaf_weight=222.07283505797386 5.4625027179718 6.5382287055254009 14.791808277368547 40.683216467499733 267.86687761545181 202.2786041945219 76.56810462474823 252.73228853940964 33.671821415424347 183.29392686486244 84.854841351509094 157.16587543487549 4.8278460800647727 4.346234053373343 6.7235492169857007 202.99673196673393 32.799797862768173 6.8156642317771903 7.5421463847160402 4.2663854360580435 15.093338310718535 208.31696383655071 17.101737320423126 13.779035463929175 5.7882887274026897 5.1424785256385794 6.6943773925304404 5.1404199600219718 8.231848016381262 7.2282090783119193 8.5043727904558164 9.2980445474386197 16.360154300928119 5.2867637872695914 4.628042295575141 6.6606834083795539 8.9587483406066877 6.9457558393478385 5.4979074746370307 4.4303059577941895 83.13765674829483 4.6335177421569886 5.564619153738021 5.4426330476999283 58.788628578186035 12.31769724190235 16.792315244674686 4.4755987823009482 79.343689531087875 9.0258694440126437 4.2119836509227744 33.584613710641861 74.855529546737671 17.633683249354362 4.1980788111686698 10.915004909038542
leaf_count=1036 25 31 66 193 1236 953 344 1169 154 866 392 741 23 20 30 946 154 31 34 20 69 985 81 62 26 23 31 24 39 33 38 42 73 24 21 30 40 31 25 20 396 22 26 25 280 55 80 20 378 43 20 160 334 84 20 52
internal_value=0 0.190103 0.0563345 0.106967 -0.119035 -0.449715 -1.09002 0.0349803 0.589256 0.136388 0.446172 0.310796 -2.44201 -1.44749 -0.613033 0.619999 -0.126142 0.178236 -2.54368 -1.89884 1.00087 0.8169 0.742236 -1.61423 -2.18469 1.22916 0.902123 1.14151 1.29204 -2.52505 -2.12665 -2.55614 -2.76653 -2.45728 -2.16886 -2.84015 -2.641 -2.87777 -2.61147 -2.61809 1.33281 1.37191 1.17602 -1.09359 1.36939 -2.85402 1.38971 -2.88009 1.40979 1.35383 1.42079 1.40202 -2.94893 1.4281 1.42808 1.42808
internal_weight=0 2423.69 2147.25 2077.31 1414.48 799.446 344.435 455.011 662.831 315.6 268.149 615.035 188.615 69.9419 39.4175 360.163 254.873 28.2636 183.787 47.2036 347.231 223.41 21.448 47.4509 42.9372 276.439 83.9978 78.8553 72.1609 30.5244 15.7326 32.0321 136.583 26.2633 13.9261 110.32 20.9765 103.659 21.8581 11.1539 123.821 192.442 31.1885 10.9051 67.0205 18.106 25.6239 13.4343 161.253 26.4791 134.774 37.7966 81.8013 96.9774 20.9904 19.9409
internal_count=12176 11328 10015 9696 6579 3702 1580 2122 3117 1474 1258 2877 848 319 182 1687 1190 132 825 214 1643 1054 101 216 194 1313 397 374 343 137 71 144 611 118 63 493 94 463 98 50 589 916 148 50 319 81 122 60 768 126 642 180 365 462 100 95
shrinkage=0.005


Tree=9
num_leaves=58
num_cat=0
split_feature=3 4 3 4 3 8 3 8 3 0 8 8 4 4 4 6 8 0 3 0 2 3 4 1 2 3 0 8 4 1 2 6 7 0 0 0 2 3 4 2 4 3 7 0 4 2 3 3 4 7 8 0 0 3 2 0 0
split_gain=1195.95 334.512 161.54 224.433 199.205 223.088 209.608 163.342 122.925 142.224 111.188 83.1746 118.166 77.927 73.0387 61.7936 61.6056 30.6475 29.6107 78.7883 27.9795 25.8554 38.2285 17.5911 17.0702 12.8625 73.0097 19.1423 5.60539 5.04325 9.23115 3.61787 3.04242 3.4462 2.72357 2.39247 2.09079 1.91713 6.85673 1.81274 1.75877 1.42532 6.52905 1.39033 0.841305 0.369282 0.170598 0.142825 0.099091 0.444414 0.0184828 0.0666483 0.00079444 4.87449e-06 1.42109e-14 7.10543e-15 7.10543e-15
threshold=112.50000000000001 359.50000000000006 81.500000000000014 159.50000000000003 2.5000000000000004 9.5000000000000018 15.500000000000002 15.500000000000002 46.500000000000007 0.55000000000000016 16.500000000000004 3.5000000000000004 15.500000000000002 16.500000000000004 790.50000000000011 1.0000000180025095e-35 15.500000000000002 0.41000000000000009 16.500000000000004 0.33000000000000007 0.55500000000000016 133.50000000000003 482.50000000000006 0.46210000000000007 0.39500000000000007 72.500000000000014 0.43000000000000005 14.500000000000002 385.50000000000006 0.61365000000000014 0.54500000000000015 1.0000000180025095e-35 4.5000000000000009 0.63000000000000012 0.67000000000000015 0.51000000000000012 0.33500000000000008 153.50000000000003 436.50000000000006 0.49500000000000005 191.50000000000003 60.500000000000007 9.5000000000000018 0.65000000000000013 443.50000000000006 0.52500000000000013 63.500000000000007 153.50000000000003 387.50000000000006 4.5000000000000009 17.500000000000004 0.43000000000000005 0.57000000000000017 40.500000000000007 0.54500000000000015 0.73000000000000009 0.6100000000000001
decision_type=2 2 2 2 2 2 2 2 2 2 2 2 2 2 2 2 2 2 2 2 2 2 2 2 2 2 2 2 2 2 2 2 2 2 2 2 2 2 2 2 2 2 2 2 2 2 2 2 2 2 2 2 2 2 2 2 2
left_child=1 2 3 4 11 6 -6 -7 18 17 -11 13 -13 -1 21 29 20 -10 40 -20 23 22 24 -17 43 41 -27 -28 -29 54 -31 45 33 36 -33 -34 -23 38 -37 -18 -5 48 46 -2 -30 -26 -43 -38 49 -3 53 -52 -39 -50 -4 -48 -51
right_child=14 25 15 8 5 7 -8 -9 9 10 -12 12 -14 -15 -16 16 39 -19 19 -21 -22 32 -24 -25 31 26 27 28 44 30 -32 34 35 -35 -36 37 47 52 -40 -41 -42 42 -44 -45 -46 -47 55 -49 50 56 51 -53 -54 -55 -56 -57 -58
leaf_value=0.0056249816953450006 -0.007209243190104922 0.0056212312847132859 -0.014601341913600369 0.0057957000590394504 -0.003011810621425181 0.0036135051508321288 -0.012163488605883288 -0.0022413781855288224 -0.010460683876266476 0.0049499112578832325 -0.0037154651560495351 -0.0028110648911242125 0.0033312969413993115 -0.0033268038984533232 0.0071252409683308484 -0.0052715976716039351 -0.010700336168922986 -0.0034625957193129909 -0.0044605793964876059 0.0045521029103760607 -0.0079211328978029891 -0.010979517683733222 0.0048742709701743419 0.005987594580900155 -0.01309404623441709 -0.01371293865763392 -0.0023912357887822234 0.0014118248952365586 0.0053328941156812592 -0.0063911786099148903 -0.014063781032216205 -0.012306645936992782 -0.011220623887453712 -0.0085730112944661426 -0.0076198182618648106 -0.014605249107840468 -0.013534803051649428 -0.014659721650439718 -0.0082443867588346681 -0.014752521918071821 0.0070659959189642843 0.0060638343615219779 0.00095561354989961175 -0.0036420715617409456 0.0070414687525047212 -0.014621797196235358 0.0071251799706408356 -0.01462604074623871 0.0071251799706408374 0.0071251799706408356 0.0066604000329688468 0.0071254816567981926 -0.014602183122211024 0.0071281336695579681 -0.014601341913600373 0.0071251799706408374 0.0071251799706408374
leaf_weight=174.58162765204906 5.4765379130840284 6.5236278325319317 7.8810564428567904 40.589409574866295 336.12066526710987 209.43984594941139 76.877386927604675 276.24762351810932 25.133189409971237 128.18501269817352 52.050765752792358 156.17203706502914 157.03084018826485 28.244518548250198 4.8140090852975836 4.3545511066913667 4.9279707968234998 41.442167162895203 26.691051781177521 265.03512087464333 6.8344862759113303 7.5700338482856813 4.2583895921707144 17.06118468940258 5.813426390290263 5.1654490977525702 6.7003146559000006 5.1376594305038443 8.2144438773393613 7.2445387244224539 8.5431684553623182 9.3368085920810682 6.9279564172029486 5.3024518489837638 4.6401924639940253 16.210357755422596 4.4967515021562567 6.5173943638801566 5.7357462346553794 6.2732676863670349 82.901463031768799 4.6223143041133943 5.5625921189784995 5.4497838765382767 58.622223734855652 12.375913232564924 13.395348548889162 8.9996108412742597 79.116277366876602 12.976743906736376 10.681121349334715 27.629472896456718 75.430864036083221 16.962891429662704 6.9803642779588699 7.5348835587501517 6.9069765955209723
leaf_count=827 25 31 35 193 1551 988 344 1277 114 607 240 723 738 131 23 20 22 193 123 1251 31 34 20 81 26 23 31 24 39 33 38 42 31 24 21 72 20 29 26 28 396 22 26 25 280 55 64 40 378 62 51 132 335 81 31 36 33
internal_value=0 0.189244 0.056068 0.106466 -0.118417 -0.402764 -0.943069 0.056677 0.587026 0.0281218 0.489483 0.376785 0.0537074 0.87568 -2.42026 -1.43697 -0.609429 -1.2209 0.919247 0.7455 0.177437 -2.52057 -1.88344 0.739643 -2.1659 1.22607 0.89931 1.13842 1.28892 -2.50217 -2.10861 -2.53272 -2.74047 -2.43518 -2.15014 -2.81311 -2.61655 -2.85105 -2.58856 -2.59395 1.32969 1.36882 1.17291 -1.086 1.3663 -2.8267 1.38664 -2.85249 1.40673 1.35073 1.41773 1.39916 -2.92135 1.42514 -2.92027 1.42504 1.42504
internal_weight=0 2422.6 2146.84 2076.74 1414.71 898.686 412.998 485.687 662.028 246.811 180.236 516.029 313.203 202.826 189.356 70.1006 39.4515 66.5754 415.217 291.726 28.2502 184.542 47.3511 21.4157 43.0927 275.752 83.8401 78.6746 71.9743 30.6491 15.7877 32.1663 137.191 26.3688 13.977 110.822 21.0664 103.894 21.9461 11.2012 123.491 191.912 31.1151 10.9263 66.8367 18.1893 25.5525 13.4964 160.797 26.4073 134.39 38.3106 81.9483 96.0792 14.8614 20.9302 19.8837
internal_count=12176 11328 10015 9696 6579 4160 1895 2265 3117 1154 847 2419 1461 958 848 319 182 307 1963 1374 132 825 214 101 194 1313 397 374 343 137 71 144 611 118 63 493 94 462 98 50 589 916 148 50 319 81 122 60 768 126 642 183 364 459 66 100 95
shrinkage=0.005


Tree=10
num_leaves=57
num_cat=0
split_feature=3 4 3 4 3 8 3 8 3 0 8 1 4 6 8 8 4 2 3 4 3 1 1 2 2 3 0 8 4 1 2 6 7 0 0 0 2 3 4 4 4 3 7 0 4 2 3 3 4 7 3 0 0 8 4 0
split_gain=1179.86 332.168 159.616 222.458 197.22 242.033 177.203 169.48 122.064 167.722 130.562 82.4069 71.8979 60.7274 60.6944 52.8356 51.4343 27.6715 25.32 37.6549 21.0263 71.763 17.4469 17.2346 16.7493 12.8201 72.22 19.0257 5.58287 4.9379 9.05442 3.54367 2.97811 3.37801 2.66986 2.34156 2.04759 1.87521 6.718 1.8067 1.75557 1.42254 6.50023 1.3687 0.839639 0.361606 0.170334 0.139585 0.098967 0.443601 0.0185538 0.204868 0.000760502 6.30949e-07 2.84217e-14 7.10543e-15
threshold=112.50000000000001 359.50000000000006 81.500000000000014 159.50000000000003 3.5000000000000004 9.5000000000000018 15.500000000000002 15.500000000000002 39.500000000000007 0.45000000000000007 16.500000000000004 0.29545000000000005 790.50000000000011 1.0000000180025095e-35 15.500000000000002 3.5000000000000004 66.500000000000014 0.55500000000000016 133.50000000000003 482.50000000000006 16.500000000000004 0.29545000000000005 0.46210000000000007 0.6150000000000001 0.39500000000000007 72.500000000000014 0.43000000000000005 14.500000000000002 385.50000000000006 0.61365000000000014 0.54500000000000015 1.0000000180025095e-35 4.5000000000000009 0.63000000000000012 0.67000000000000015 0.51000000000000012 0.33500000000000008 153.50000000000003 436.50000000000006 322.50000000000006 191.50000000000003 60.500000000000007 9.5000000000000018 0.65000000000000013 443.50000000000006 0.52500000000000013 63.500000000000007 153.50000000000003 387.50000000000006 4.5000000000000009 40.500000000000007 0.47000000000000003 0.57000000000000017 17.500000000000004 258.50000000000006 0.63000000000000012
decision_type=2 2 2 2 2 2 2 2 2 2 2 2 2 2 2 2 2 2 2 2 2 2 2 2 2 2 2 2 2 2 2 2 2 2 2 2 2 2 2 2 2 2 2 2 2 2 2 2 2 2 2 2 2 2 2 2
left_child=1 2 3 4 11 6 -6 -7 20 23 -11 16 18 29 17 -13 -1 22 19 24 40 -22 -15 -10 43 41 -27 -28 -29 54 -31 45 33 36 -33 -34 -20 38 -37 -16 -5 48 46 -2 -30 -26 -43 -38 49 -3 53 -52 -39 -50 -4 -51
right_child=12 25 13 8 5 7 -8 -9 9 10 -12 15 -14 14 39 -17 -18 -19 32 -21 21 -23 -24 -25 31 26 27 28 44 30 -32 34 35 -35 -36 37 47 52 -40 -41 -42 42 -44 -45 -46 -47 -48 -49 50 55 51 -53 -54 -55 -56 -57
leaf_value=-0.0014954352478056274 -0.0071550706455548608 0.0056057146175205862 -0.014462167464456182 0.0057801291406270397 -0.0034586819978038238 0.0035915332549535522 -0.012055098869538917 -0.0025518113501768508 -0.0060421337023307126 0.0045947596517347021 -0.0029066868236020593 0.0052651326733980184 0.0071101517696797872 -0.0052353291557091421 -0.014477371557664338 0.0013995260034518379 0.0052200401820952994 -0.0078601535764489337 -0.010885211090053052 0.0048590496498934505 -0.0064466354909912963 0.0048252849037392822 0.0059719060166515308 -0.012663096039188644 -0.012973625039335452 -0.013585274208844464 -0.0023771843656531532 0.0014055200622025924 0.0053175314898045549 -0.006345071336553044 -0.013931609295502231 -0.012195438403352956 -0.0111240177387813 -0.0085053238225715876 -0.0075621633682446754 -0.014465982552561086 -0.013409834637940177 -0.014519155443397807 -0.0081800742422232994 -0.010381637284983541 0.0070508511328337088 0.0060482316203798563 0.00095118147879871481 -0.003619145617727108 0.0070263022210245527 -0.014482145361217988 0.0071100914057698897 -0.014486275144390839 0.0071100914057698897 0.0071100914057698889 0.0059371921575810081 0.0071100859334568634 -0.014462988838773646 0.0071111399974161417 -0.014462167464456189 0.0071100914057698897
leaf_weight=222.1014160066843 5.4903772026300413 6.5090135633945492 6.1074176877737072 40.495496273040771 268.50151938199997 201.70882523059845 77.179995179176331 253.17953310906887 33.813680559396744 182.68547932803631 84.990950465202332 156.63006815314293 4.8001388460397711 4.3627733588218751 6.7826516926288587 202.91031928360462 32.712298959493637 6.8530237674713126 7.5973716080188813 4.2503905296325675 15.150984466075895 207.57460521161556 17.020577430725098 13.856437504291533 5.8379876166582134 5.1878637671470633 6.7062052637338629 5.1349081993103018 8.197028696537016 7.2606554478406897 8.5810020565986616 9.374743700027464 6.9531175643205634 5.3178877830505362 4.6521620452404013 16.284397840499881 4.5159156471490851 6.5475135743618003 5.7518967539072028 4.4650528132915497 82.66472053527832 4.6110954582691255 5.5605724453926078 5.4568671733140945 58.455435037612915 12.43263456225395 20.869927108287811 9.0409037470817548 78.888324469327927 14.400249704718592 4.1902228295803061 33.391845047473907 75.775168269872665 17.53427454829216 8.8218255490064603 5.42618104815483
leaf_count=1036 25 31 27 193 1236 953 344 1169 154 866 392 741 23 20 30 946 154 31 34 20 69 985 81 62 26 23 31 24 39 33 38 42 31 24 21 72 20 29 26 20 396 22 26 25 280 55 100 40 378 69 20 160 335 84 39 26
internal_value=0 0.18839 0.0558035 0.105967 -0.117804 -0.444857 -1.0756 0.0344601 0.584799 0.134824 0.442589 0.308382 -2.39897 -1.42662 -0.605868 0.616708 -0.126664 0.176644 -2.49796 -1.86832 0.995045 0.811702 0.737066 -1.59333 -2.14747 1.22301 0.89652 1.13535 1.28583 -2.47978 -2.0909 -2.50979 -2.715 -2.41353 -2.13175 -2.7867 -2.59264 -2.82414 -2.56505 -2.57029 1.32661 1.36576 1.16982 -1.0785 1.36323 -2.80003 1.38359 -2.82554 1.4037 1.34765 1.41471 1.39586 -2.89349 1.42206 -2.89243 1.42202
internal_weight=0 2421.47 2146.41 2076.16 1414.92 800.57 345.682 454.888 661.232 315.347 267.676 614.354 190.079 70.255 39.4841 359.54 254.814 28.2364 185.279 47.4952 345.886 222.726 21.3834 47.6701 43.2448 275.063 83.6814 78.4936 71.7874 30.7709 15.8417 32.2975 137.784 26.4721 14.0269 111.312 21.1542 104.359 22.0363 11.2477 123.16 191.382 31.0416 10.9472 66.6525 18.2706 25.481 13.5568 160.34 26.3354 134.005 37.5821 82.3227 96.4226 14.9292 19.8264
internal_count=12176 11328 10015 9696 6579 3702 1580 2122 3117 1474 1258 2877 848 319 182 1687 1190 132 825 214 1643 1054 101 216 194 1313 397 374 343 137 71 144 611 118 63 493 94 462 98 50 589 916 148 50 319 81 122 60 768 126 642 180 364 462 66 95
shrinkage=0.005


Tree=11
num_leaves=57
num_cat=0
split_feature=3 4 3 4 3 8 3 8 3 0 8 8 4 4 4 6 8 0 3 0 2 3 4 1 2 3 0 8 4 1 2 6 7 0 0 7 2 3 4 4 4 3 7 0 4 2 3 4 4 7 3 0 0 8 2 1
split_gain=1164.11 329.846 157.725 220.505 195.492 218.031 202.686 160.337 121.53 139.738 109.439 82.208 116.904 77.4248 70.7861 59.69 59.8054 29.6123 29.3281 77.6339 27.368 24.8043 37.0945 17.3041 16.439 12.7778 71.4446 18.91 5.56061 4.8368 8.88397 3.47253 2.91658 3.31241 2.61804 2.30523 2.00622 1.84119 6.98212 1.77003 1.75249 1.41983 6.47172 1.34754 0.838029 0.354286 0.170084 0.140151 0.0988508 0.442818 0.0185334 0.204549 0.000140392 6.16784e-07 1.42109e-14 7.10543e-15
threshold=112.50000000000001 359.50000000000006 81.500000000000014 159.50000000000003 2.5000000000000004 9.5000000000000018 15.500000000000002 15.500000000000002 46.500000000000007 0.55000000000000016 16.500000000000004 3.5000000000000004 15.500000000000002 16.500000000000004 790.50000000000011 1.0000000180025095e-35 15.500000000000002 0.41000000000000009 16.500000000000004 0.33000000000000007 0.55500000000000016 133.50000000000003 482.50000000000006 0.46210000000000007 0.39500000000000007 72.500000000000014 0.43000000000000005 14.500000000000002 385.50000000000006 0.61365000000000014 0.54500000000000015 1.0000000180025095e-35 4.5000000000000009 0.63000000000000012 0.67000000000000015 10.500000000000002 0.33500000000000008 153.50000000000003 436.50000000000006 322.50000000000006 191.50000000000003 60.500000000000007 9.5000000000000018 0.65000000000000013 443.50000000000006 0.52500000000000013 63.500000000000007 508.50000000000006 387.50000000000006 4.5000000000000009 40.500000000000007 0.47000000000000003 0.57000000000000017 17.500000000000004 0.45500000000000007 0.71970000000000012
decision_type=2 2 2 2 2 2 2 2 2 2 2 2 2 2 2 2 2 2 2 2 2 2 2 2 2 2 2 2 2 2 2 2 2 2 2 2 2 2 2 2 2 2 2 2 2 2 2 2 2 2 2 2 2 2 2 2
left_child=1 2 3 4 11 6 -6 -7 18 17 -11 13 -13 -1 21 29 20 -10 40 -20 23 22 24 -17 43 41 -27 -28 -29 54 -31 45 33 36 -33 37 -23 38 -34 -18 -5 48 46 -2 -30 -26 -43 -38 49 -3 53 -52 -39 -50 -4 -48
right_child=14 25 15 8 5 7 -8 -9 9 10 -12 12 -14 -15 -16 16 39 -19 19 -21 -22 32 -24 -25 31 26 27 28 44 30 -32 34 35 -35 -36 -37 47 52 -40 -41 -42 42 -44 -45 -46 -47 55 -49 50 -51 51 -53 -54 -55 -56 -57
leaf_value=0.0056011388519985085 -0.0071016005860117309 0.0055902800841163844 -0.014326308627518925 0.0057646443279362782 -0.0029795253159962238 0.0035880384989006244 -0.011948880738325424 -0.0022152771454977626 -0.010306760344579613 0.0049208454699716745 -0.0036734840661627678 -0.0027949109308772675 0.0033155716420119196 -0.003323091056804642 0.0070952013815987116 -0.0051994406474286858 -0.014341152838087925 -0.0034423855747980994 -0.0044109684416178511 0.0045260998220324209 -0.0078000215781536203 -0.010792624850635915 0.0048438966830336577 0.0059563107094492201 -0.012855788722223167 -0.0134604695916084 -0.0023632332933855547 0.0013992418214264137 0.0053022441747518955 -0.0062995095551975772 -0.013802473319363325 -0.012086487302903751 -0.01432880507818019 -0.0084386371371965776 -0.0075052824574946796 -0.010969371385523587 -0.01435463262233405 -0.014349630685028134 -0.0078472912578569903 -0.010294872040018995 0.0070358427251291855 0.0060327242024777739 0.00094676938376549841 -0.0035964138882044793 0.0070112703662643565 -0.014345825188125763 0.0070951421649842342 -0.01327837987023496 0.0070951421649842351 0.0070951421649842351 0.0059217174363696877 0.007095136370605353 -0.014326286486509529 0.0070961804233472614 -0.014326308627518934 0.0070951421649842351
leaf_weight=173.98375031352043 5.5040227770805341 6.4943863600492504 5.680037289857867 40.401485189795494 336.76655484735966 208.85894250869751 77.476001143455505 276.70125058293343 25.287235826253891 127.70133106410503 52.175881862640381 156.32568526268005 156.7724258005619 28.250385910272598 4.786236733198165 4.370901942253119 6.8127647042274457 41.4882642775774 26.761252015829086 264.18004836142063 6.8712799400091162 7.6241662502288881 4.242388814687728 16.979918003082275 5.8619804531335857 5.2097300738096228 6.7120501399040213 5.1321662664413443 8.1796024739742261 7.276562198996543 8.6178862303495389 9.4118603616952878 16.584362834692005 5.333074450492858 4.6639528870582572 6.7377692162990561 9.0797100216150266 7.0379087626934043 5.5440250784158698 4.4801327139139175 82.42744106054306 4.599862188100821 5.5585609078407279 5.4638835191726685 58.288275003433228 12.487880870699881 16.439490810036663 4.5360262244939795 78.659842103719711 19.769007936120033 4.180191993713378 33.295134291052818 75.885352939367294 17.483509853482246 9.3152611553668958 4.3699912279844275
leaf_count=827 25 31 25 193 1551 988 344 1277 114 607 240 723 738 131 23 20 30 193 123 1251 31 34 20 81 26 23 31 24 39 33 38 42 73 24 21 30 40 31 25 20 396 22 26 25 280 55 79 20 378 95 20 160 334 84 41 21
internal_value=0 0.187541 0.0555404 0.105472 -0.117194 -0.398472 -0.931414 0.0561924 0.582594 0.0269879 0.485588 0.373934 0.0529379 0.8709 -2.37813 -1.41645 -0.602354 -1.20837 0.913797 0.740811 0.175857 -2.47584 -1.85347 0.734505 -2.12938 1.21997 0.893751 1.1323 1.28275 -2.45787 -2.07352 -2.48735 -2.69011 -2.39232 -2.11371 -2.7609 -2.56924 -2.79726 -2.54099 -2.54718 1.32354 1.36273 1.16675 -1.07108 1.36019 -2.77396 1.38056 -2.79922 1.40069 1.3446 1.41171 1.39285 -2.86565 1.41907 -2.86526 1.41903
internal_weight=0 2420.33 2145.96 2075.56 1415.13 899.803 414.243 485.56 660.423 246.653 179.877 515.332 313.098 202.234 190.785 70.4047 39.515 66.7755 413.77 290.941 28.2221 185.998 47.636 21.3508 43.3936 274.372 83.5218 78.3121 71.6 30.8897 15.8944 32.4257 138.362 26.573 14.0758 111.789 21.2399 105.052 22.1284 11.2929 122.829 190.85 30.9679 10.9679 66.4679 18.3499 25.4093 13.6157 159.882 26.2634 133.619 37.4753 82.9233 96.1434 14.9953 20.8095
internal_count=12176 11328 10015 9696 6579 4160 1895 2265 3117 1154 847 2419 1461 958 848 319 182 307 1963 1374 132 825 214 101 194 1313 397 374 343 137 71 144 611 118 63 493 94 463 98 50 589 916 148 50 319 81 122 60 768 126 642 180 365 462 66 100
shrinkage=0.005


Tree=12
num_leaves=57
num_cat=0
split_feature=3 4 3 4 3 8 3 8 3 0 8 8 4 4 4 6 8 3 0 0 2 3 4 1 2 3 0 8 4 1 2 6 7 0 2 0 2 3 4 2 4 3 7 0 4 2 3 3 4 7 8 0 0 3 0 0
split_gain=1148.68 327.543 155.866 218.567 193.508 215.386 199.461 158.845 120.678 138.183 108.509 81.6003 115.777 76.8554 69.7022 58.6805 58.9368 29.2165 76.9766 29.1289 27.0687 24.3074 36.5468 17.1628 16.1391 12.7357 70.683 18.7954 5.53862 4.73974 8.71953 3.4043 2.85774 3.24929 2.56814 2.26117 1.9666 1.79662 6.4551 1.75845 1.74953 1.41719 6.44351 1.32684 0.836474 0.347303 0.169846 0.137092 0.098742 0.442065 0.018546 0.0668068 0.000883937 7.2639e-06 1.42109e-14 7.10543e-15
threshold=112.50000000000001 359.50000000000006 81.500000000000014 159.50000000000003 2.5000000000000004 9.5000000000000018 15.500000000000002 15.500000000000002 46.500000000000007 0.55000000000000016 16.500000000000004 3.5000000000000004 15.500000000000002 16.500000000000004 790.50000000000011 1.0000000180025095e-35 15.500000000000002 16.500000000000004 0.33000000000000007 0.41000000000000009 0.55500000000000016 133.50000000000003 482.50000000000006 0.46210000000000007 0.39500000000000007 72.500000000000014 0.43000000000000005 14.500000000000002 385.50000000000006 0.61365000000000014 0.54500000000000015 1.0000000180025095e-35 4.5000000000000009 0.63000000000000012 0.50500000000000012 0.51000000000000012 0.33500000000000008 153.50000000000003 436.50000000000006 0.49500000000000005 191.50000000000003 60.500000000000007 9.5000000000000018 0.65000000000000013 443.50000000000006 0.52500000000000013 63.500000000000007 153.50000000000003 387.50000000000006 4.5000000000000009 17.500000000000004 0.43000000000000005 0.57000000000000017 40.500000000000007 0.51000000000000012 0.79000000000000015
decision_type=2 2 2 2 2 2 2 2 2 2 2 2 2 2 2 2 2 2 2 2 2 2 2 2 2 2 2 2 2 2 2 2 2 2 2 2 2 2 2 2 2 2 2 2 2 2 2 2 2 2 2 2 2 2 2 2
left_child=1 2 3 4 11 6 -6 -7 17 19 -11 13 -13 -1 21 29 20 40 -19 -10 23 22 24 -17 43 41 -27 -28 -29 54 -31 45 33 36 -33 -34 -23 38 -37 -18 -5 48 46 -2 -30 -26 -43 -38 49 -3 53 -52 -39 -50 -4 -48
right_child=14 25 15 8 5 7 -8 -9 9 10 -12 12 -14 -15 -16 16 39 18 -20 -21 -22 32 -24 -25 31 26 27 28 44 30 -32 34 35 -35 -36 37 47 52 -40 -41 -42 42 -44 -45 -46 -47 55 -49 50 -51 51 -53 -54 -55 -56 -57
leaf_value=0.0055856403311128752 -0.007048818637254357 0.0055749266865305945 -0.014193650390207398 0.005749245963177948 -0.0029614247747920337 0.0035751580382107268 -0.01184476590582337 -0.0022024169385805458 -0.010219985449579772 0.0049058914113057975 -0.0036502700486427419 -0.0027780784042089252 0.0033032547930073024 -0.0033024039873414948 0.0070803884649072706 -0.0051639257783583107 -0.010399625933687751 -0.0043819686200357658 0.0045115413645772503 -0.0034207725881450273 -0.0077407183452536769 -0.01070171007280952 0.0048288101908655432 0.0059408071006235835 -0.012740454434550108 -0.013338430848128109 -0.002349382440301165 0.0013929890295822278 0.0052870308043093065 -0.0062544848908081896 -0.013676269733748992 -0.0074488530826481419 -0.01092755104204134 -0.008372927958694678 -0.011979646491022145 -0.014197733458395289 -0.013159047780391633 -0.014254827770573113 -0.0080553410715537271 -0.014367002181326877 0.0070209683427006351 0.0060173108028867455 0.00094237591137833062 -0.0035738742928645073 0.0069963718349442929 -0.014212721912532172 0.0070803291843916051 -0.014221310295512853 0.0070803291843916059 0.0070803291843916059 0.0066130880746486601 0.0070806980541957189 -0.014194533855706095 0.00708395035302045 -0.014193650390207401 0.0070803291843916059
leaf_weight=173.59514732658863 5.5174771249294263 6.4797471463680294 10.039739966392519 40.307382076978683 337.12990656495094 208.56410109996796 77.765497088432312 276.92481724917889 25.374213874340057 127.45076633989811 52.244986295700073 156.48610728979111 156.5707001388073 28.285131454467773 4.7723037600517264 4.3789380192756715 4.984168276190756 26.803559303283691 263.70857140421867 41.541508659720421 6.8892575651407233 7.6504253745079103 4.2343848049640647 16.939210072159767 5.8854121416807201 5.2310548722743979 6.7178497463464728 5.1294336318969718 8.1621669530868513 7.2922609448432913 8.6538335233926755 4.675093561410903 7.0040794461965552 5.348015069961547 9.4486432522535306 16.426479533314708 4.5542287677526465 6.6039379388093939 5.7831509262323371 6.3528387695550919 82.189654111862183 4.5886148214340272 5.5565575063228598 5.4708339273929596 58.120756149291992 12.541670918464659 16.599123477935795 9.118907302618025 78.430858433246613 19.711459130048752 10.591947510838507 27.390529319643974 76.436726659536362 16.818515092134476 5.0198699831962577 4.1497808694839469
leaf_count=827 25 31 44 193 1551 988 344 1277 114 607 240 723 738 131 23 20 22 123 1251 193 31 34 20 81 26 23 31 24 39 33 38 21 31 24 42 72 20 29 26 28 396 22 26 25 280 55 80 40 378 95 51 132 335 81 22 20
internal_value=0 0.186698 0.0552793 0.104979 -0.11659 -0.39622 -0.925293 0.0559212 0.580391 0.0268626 0.483652 0.372354 0.052682 0.86807 -2.35772 -1.40645 -0.598883 0.910908 0.7382 -1.1998 0.175076 -2.45418 -1.83887 0.731959 -2.11163 1.21695 0.891005 1.12927 1.2797 -2.43641 -2.05645 -2.46537 -2.66577 -2.37154 -2.09598 -2.73569 -2.54634 -2.7723 -2.51966 -2.52456 1.3205 1.35972 1.1637 -1.06374 1.35718 -2.7485 1.37756 -2.7735 1.39771 1.34158 1.40874 1.39006 -2.83987 1.41619 -2.83873 1.41607
internal_weight=0 2419.17 2145.49 2074.94 1415.32 900.384 414.895 485.489 659.621 246.611 179.696 514.937 313.057 201.88 191.472 70.5501 39.5444 413.009 290.512 66.9157 28.2074 186.699 47.7735 21.3181 43.5391 273.678 83.3613 78.1302 71.4124 31.0057 15.9461 32.5508 138.926 26.6716 14.1237 112.254 21.3236 105.25 22.2096 11.337 122.497 190.317 30.8941 10.9883 66.2829 18.4271 25.3375 13.6731 159.423 26.1912 133.232 37.9825 83.0407 95.2494 15.0596 20.7489
internal_count=12176 11328 10015 9696 6579 4160 1895 2265 3117 1154 847 2419 1461 958 848 319 182 1963 1374 307 132 825 214 101 194 1313 397 374 343 137 71 144 611 118 63 493 94 462 98 50 589 916 148 50 319 81 122 60 768 126 642 183 364 459 66 100
shrinkage=0.005


Tree=13
num_leaves=56
num_cat=0
split_feature=3 4 3 4 3 8 3 8 3 0 8 0 4 4 6 8 8 2 3 4 4 3 1 2 2 3 0 8 4 1 2 6 7 0 0 1 7 2 3 4 4 3 7 0 4 2 3 4 4 7 3 0 0 8 0
split_gain=1133.58 325.262 154.038 216.648 191.785 233.316 168.477 164.895 119.93 163.007 127.992 82.0395 68.6453 63.1995 57.6983 58.0868 42.2227 26.7737 23.8283 36.0115 20.9379 24.5237 17.023 17.0083 15.849 12.6937 69.9349 18.6819 5.51688 4.6465 8.56082 3.33884 2.80136 3.18852 2.54625 2.35793 2.2267 1.92864 1.76718 6.72264 1.73069 1.41462 6.41561 1.3066 0.834973 0.340638 0.169619 0.137667 0.0986396 0.441342 0.0185942 0.204808 0.000230112 1.34837e-06 7.10543e-15
threshold=112.50000000000001 359.50000000000006 81.500000000000014 159.50000000000003 3.5000000000000004 9.5000000000000018 15.500000000000002 15.500000000000002 39.500000000000007 0.45000000000000007 16.500000000000004 0.43000000000000005 790.50000000000011 66.500000000000014 1.0000000180025095e-35 15.500000000000002 3.5000000000000004 0.55500000000000016 133.50000000000003 482.50000000000006 230.50000000000003 15.500000000000002 0.46210000000000007 0.6150000000000001 0.39500000000000007 72.500000000000014 0.43000000000000005 14.500000000000002 385.50000000000006 0.61365000000000014 0.54500000000000015 1.0000000180025095e-35 4.5000000000000009 0.63000000000000012 0.67000000000000015 0.37120000000000003 10.500000000000002 0.33500000000000008 153.50000000000003 436.50000000000006 322.50000000000006 60.500000000000007 9.5000000000000018 0.65000000000000013 443.50000000000006 0.52500000000000013 63.500000000000007 508.50000000000006 387.50000000000006 4.5000000000000009 40.500000000000007 0.47000000000000003 0.57000000000000017 17.500000000000004 0.75000000000000011
decision_type=2 2 2 2 2 2 2 2 2 2 2 2 2 2 2 2 2 2 2 2 2 2 2 2 2 2 2 2 2 2 2 2 2 2 2 2 2 2 2 2 2 2 2 2 2 2 2 2 2 2 2 2 2 2 2
left_child=1 2 3 4 11 6 -6 -7 20 23 -11 13 18 -1 29 17 -13 22 19 24 21 -5 -16 -10 43 41 -27 -28 -29 -4 -31 45 33 37 -33 -22 38 -20 39 -34 -17 48 46 -2 -30 -26 -43 -39 49 -3 53 -52 -40 -50 -48
right_child=12 25 14 8 5 7 -8 -9 9 10 -12 16 -14 -15 15 40 -18 -19 32 -21 35 -23 -24 -25 31 26 27 28 44 30 -32 34 36 -35 -36 -37 -38 47 52 -41 -42 42 -44 -45 -46 -47 54 -49 50 -51 51 -53 -54 -55 -56
leaf_value=-0.00056873121346269885 -0.0069967109924552271 0.0055596533352672639 -0.014064080174455842 0.0064176916045719633 -0.0034000796767452955 0.0035528927356870679 -0.011742689098646097 -0.0025105403426203309 -0.0059180479483915121 0.0045561581457365784 -0.0028715718290579519 0.0064378955311862451 0.0070657100165021497 0.0053607590668670645 -0.0051287776397872754 -0.014092439539559699 0.0019669690718688089 -0.0076822240541000609 -0.010612419879388981 0.0048137906976213687 0.0054792048019243521 0.0027479841453367316 0.0059253952412740866 -0.012474187693464421 -0.012627543164974879 -0.013219067473200298 -0.0023356294774587159 0.0013867620134378564 0.0052718909391582984 -0.0062099849707109023 -0.013552899145772073 -0.011883551596909597 -0.014067263199348621 -0.0083081736953568783 -0.0073794189411753742 0.006901812289880376 -0.010778594141450692 -0.014095694741935921 -0.014093814080429401 -0.0077265964763684235 -0.010106453904366246 0.0060019899339493667 0.00093800181036428733 -0.0035515242190916657 0.0069816047733951819 -0.014082722799679391 0.007065651637966886 -0.013033406040368884 0.0070656516379668868 0.0070656516379668868 0.0058883601280403245 0.0070656426903338808 -0.014064050460049415 0.0070671911874646779 0.0070656516379668868
leaf_weight=349.3983166962862 5.5307419896125776 6.4650968462228802 15.12220135331154 67.30362232029438 269.41158145666122 200.85612359642982 78.048570156097412 253.82286851108074 34.017049461603165 181.80006328225136 85.167868167161942 98.350156784057617 4.7583416402339926 51.571471959352493 4.3868825137615266 6.8674967736005765 114.03614196181297 6.9069608002901068 7.6761550605297151 4.2263787835836402 42.28906936943531 140.70085559785366 16.898454800248146 13.948920622467993 5.9082896858453777 5.2518457025289527 6.7236036211252204 5.1267106533050528 8.1447232961654645 7.3077541440725318 8.6888565570116025 9.4807716161012632 16.724363505840305 5.3627125024795523 4.6899213492870322 93.587195977568626 6.7858607321977606 9.1557110846042615 7.0960839986801139 5.5734224617481223 4.5127627849578857 4.5773543417453828 5.5545618534088126 5.477718785405159 57.952895164489746 12.594025105237959 15.102383822202684 4.5733257085084906 78.201384723186493 19.653787165880203 4.1583305001258841 33.101053953170776 76.527573496103287 17.383457064628601 5.58581319451332
leaf_count=1635 25 31 66 324 1236 953 344 1169 154 866 392 468 23 243 20 30 531 31 34 20 202 669 81 62 26 23 31 24 39 33 38 42 73 24 21 448 30 40 31 25 20 22 26 25 280 55 73 20 378 95 20 160 334 84 27
internal_value=0 0.185861 0.0550199 0.10449 -0.115989 -0.437862 -1.05481 0.0336007 0.578201 0.132363 0.437314 0.304952 -2.33773 0.0387802 -1.3966 -0.595453 0.807466 0.174302 -2.43298 -1.82453 0.98651 0.787077 0.729429 -1.56493 -2.09421 1.21396 0.88828 1.12626 1.27668 -2.41539 -2.03969 -2.44385 -2.64197 -2.35117 -2.07857 1.29181 -2.71104 -2.52392 -2.74662 -2.49648 -2.50236 1.35674 1.16066 -1.05648 1.35419 -2.72361 1.37459 -2.74837 1.39475 1.33858 1.4058 1.38685 -2.81332 1.41319 1.41313
internal_weight=0 2417.98 2145 2074.31 1415.5 802.139 347.46 454.679 658.815 314.934 266.968 613.356 192.141 400.97 70.6914 39.5726 212.386 28.1923 187.383 47.9078 343.881 208.004 21.2853 47.966 43.6815 272.983 83.1998 77.9479 71.2243 31.1188 15.9966 32.673 139.475 26.7679 14.1707 135.876 112.707 21.4052 105.921 22.2978 11.3803 189.783 30.8201 11.0085 66.0976 18.5023 25.2656 13.729 158.963 26.1189 132.844 37.2594 83.6237 95.5848 20.6882
internal_count=12176 11328 10015 9696 6579 3702 1580 2122 3117 1474 1258 2877 848 1878 319 182 999 132 825 214 1643 993 101 216 194 1313 397 374 343 137 71 144 611 118 63 650 493 94 463 98 50 916 148 50 319 81 122 60 768 126 642 180 365 462 100
shrinkage=0.005


Tree=14
num_leaves=58
num_cat=0
split_feature=3 4 3 4 3 8 3 8 3 0 8 8 4 4 4 6 8 3 0 8 2 3 4 1 2 3 0 8 4 1 2 6 7 0 0 0 2 4 3 4 2 3 7 0 4 2 3 3 4 7 3 0 0 8 0 0 0
split_gain=1118.78 323.001 152.24 214.747 189.936 210.517 193.067 155.938 119.303 135.782 106.805 80.7969 114.515 76.2909 67.6144 56.7416 57.257 28.9828 76.3337 28.4394 26.4828 23.3662 35.488 16.8845 15.5682 12.6518 69.1998 18.5693 5.49539 4.55691 8.40759 3.27601 2.74739 3.12999 2.49896 2.18721 1.89224 1.75204 1.72456 6.21224 1.71541 1.41211 6.388 1.28679 0.833525 0.334274 0.169405 0.134776 0.0985447 0.440648 0.0185772 0.204525 0.00100328 1.32022e-06 1.42109e-14 1.42109e-14 7.10543e-15
threshold=112.50000000000001 359.50000000000006 81.500000000000014 159.50000000000003 2.5000000000000004 9.5000000000000018 15.500000000000002 15.500000000000002 46.500000000000007 0.55000000000000016 16.500000000000004 3.5000000000000004 15.500000000000002 16.500000000000004 790.50000000000011 1.0000000180025095e-35 15.500000000000002 16.500000000000004 0.33000000000000007 15.500000000000002 0.55500000000000016 133.50000000000003 482.50000000000006 0.46210000000000007 0.39500000000000007 72.500000000000014 0.43000000000000005 14.500000000000002 385.50000000000006 0.61365000000000014 0.54500000000000015 1.0000000180025095e-35 4.5000000000000009 0.63000000000000012 0.67000000000000015 0.51000000000000012 0.33500000000000008 191.50000000000003 153.50000000000003 436.50000000000006 0.49500000000000005 60.500000000000007 9.5000000000000018 0.65000000000000013 443.50000000000006 0.52500000000000013 63.500000000000007 153.50000000000003 387.50000000000006 4.5000000000000009 40.500000000000007 0.47000000000000003 0.57000000000000017 17.500000000000004 0.51000000000000012 0.57000000000000017 0.75000000000000011
decision_type=2 2 2 2 2 2 2 2 2 2 2 2 2 2 2 2 2 2 2 2 2 2 2 2 2 2 2 2 2 2 2 2 2 2 2 2 2 2 2 2 2 2 2 2 2 2 2 2 2 2 2 2 2 2 2 2 2
left_child=1 2 3 4 11 6 -6 -7 17 19 -11 13 -13 -1 21 29 20 37 -19 -10 23 22 24 -17 43 41 -27 -28 -29 54 -31 45 33 36 -33 -34 -23 -5 39 -37 -18 48 46 -2 -30 -26 -43 -38 49 -3 53 -52 -40 -50 -4 -51 -48
right_child=14 25 15 8 5 7 -8 -9 9 10 -12 12 -14 -15 -16 16 40 18 -20 -21 -22 32 -24 -25 31 26 27 28 44 30 -32 34 35 -35 -36 38 47 -39 52 -41 -42 42 -44 -45 -46 -47 56 -49 50 55 51 -53 -54 -55 -56 -57 -58
leaf_value=0.0055634338562379872 -0.0069452634883973175 0.0055444600075207177 -0.013937493692587972 0.005717596591528447 -0.0029297453398712081 0.0035498894098535405 -0.011642592441060058 -0.0021771990453544627 -0.0038025952219189934 0.0048771941135445961 -0.0036091839181838681 -0.0027634090097043147 0.0032861002514269163 -0.0032915144407678061 0.0070511663365542343 -0.0050939912867965162 -0.010214547588171039 -0.0043676681377698293 0.0044868851463385675 -0.010899045749265857 -0.0076245223145148134 -0.010524709646997392 0.0047988362547127482 0.0059100731021534429 -0.012516977462617538 -0.013102290361428242 -0.0023219749452432167 0.0013805608675147702 0.0052568225410707268 -0.0061660011963873222 -0.013432269192655354 -0.011780796904198403 -0.010738503178275013 -0.0082443505240021552 -0.0073249505086408788 -0.013941816143927263 -0.012919336421623757 0.0069934499536536444 -0.014002412411295947 -0.007934088409032581 -0.014118685766827491 0.0059867606685386219 0.00093364678641230669 -0.0035293613542877011 0.0069669663975072803 -0.013955721764210512 0.0070511078978864944 -0.013968385443097578 0.0070511078978864961 0.0070511078978864944 0.0058731681541617292 0.0070510988968657227 -0.013938436253885857 0.0070526335331592043 -0.013937493692587977 0.0070511078978864961 0.0070511078978864961
leaf_weight=173.02970562875271 5.5438199043273908 6.4504359215497997 10.122063517570497 40.112041592597961 337.76169395446777 207.98333205282688 78.325292110443115 277.36196611821651 46.910228863358498 126.96672290563583 52.367144823074341 156.62552271783352 156.28720758855343 28.303147554397583 4.7443507462739936 4.3947360217571321 5.0184723287820798 26.823670044541359 262.88728076219559 20.196538165211678 6.9243919551372519 7.7013624012470308 4.2183715999126425 16.857655897736549 5.9306203573942211 5.2721090763807288 6.729313150048255 5.1239966154098502 8.1272720843553525 7.3230442553758648 8.722967252135275 9.5155595242977125 7.0528294742107382 5.377169966697692 4.7011435925960532 16.561076372861866 4.5905928611755362 81.742719292640686 6.6574721187353125 5.8134304881095877 6.4037900567054749 4.5660814046859803 5.5525743365287772 5.4845388680696487 57.784704566001892 12.644962206482885 15.057978272438051 9.1928675174713117 77.971449136734009 11.345052123069765 4.1482666432857505 33.003726720809937 77.063377872109413 17.332370549440384 5.0610317587852469 8.2509469985961896 5.5693892240524283
leaf_count=827 25 31 44 193 1551 988 344 1277 215 607 240 723 738 131 23 20 22 123 1251 92 31 34 20 81 26 23 31 24 39 33 38 42 31 24 21 72 20 396 29 26 28 22 26 25 280 55 73 40 378 55 20 160 335 84 22 40 27
internal_value=0 0.185027 0.0547614 0.104003 -0.115391 -0.392047 -0.913975 0.055402 0.576022 0.0257548 0.479819 0.369564 0.0516151 0.863723 -2.31815 -1.38692 -0.592067 0.905516 0.733412 -1.18767 0.173533 -2.41222 -1.81043 0.726913 -2.0771 1.211 0.885576 1.12327 1.27367 -2.3948 -2.02322 -2.42276 -2.61869 -2.3312 -2.06147 -2.68695 -2.50197 1.31469 -2.72279 -2.47617 -2.48067 1.35378 1.15765 -1.0493 1.35122 -2.69927 1.37164 -2.7238 1.39183 1.3356 1.40288 1.38392 -2.7887 1.41028 -2.7875 1.41022 1.41022
internal_weight=0 2416.8 2144.51 2073.68 1415.68 901.432 416.087 485.345 658.006 246.441 179.334 514.246 312.913 201.333 192.794 70.8282 39.599 411.566 289.711 67.1068 28.1768 188.049 48.039 21.2524 43.8206 272.286 83.0374 77.7653 71.036 31.2291 16.046 32.7923 140.01 26.862 14.2167 113.148 21.4848 121.855 106.095 22.3745 11.4223 189.248 30.746 11.0284 65.912 18.5756 25.1934 13.7835 158.502 26.0464 132.456 37.152 83.7208 95.3038 15.1831 19.596 20.6274
internal_count=12176 11328 10015 9696 6579 4160 1895 2265 3117 1154 847 2419 1461 958 848 319 182 1963 1374 307 132 825 214 101 194 1313 397 374 343 137 71 144 611 118 63 493 94 589 462 98 50 916 148 50 319 81 122 60 768 126 642 180 364 462 66 95 100
shrinkage=0.005


Tree=15
num_leaves=56
num_cat=0
split_feature=3 4 3 4 3 8 3 8 3 0 8 0 4 4 6 8 8 2 3 4 4 3 1 2 2 3 0 8 4 1 2 6 7 0 2 1 7 2 3 4 4 3 7 0 4 2 3 4 4 7 8 0 0 3 0
split_gain=1104.28 320.76 150.472 212.863 188.153 227.687 163.079 161.881 118.481 160.259 126.053 81.4354 66.6084 62.6858 55.8102 56.4445 41.7652 26.196 22.9203 34.9761 20.8791 24.3468 16.7475 16.7112 15.2964 12.6101 68.4773 18.4577 5.47415 4.47078 8.25959 3.21568 2.69564 3.07361 2.47856 2.35103 2.15444 1.85733 1.69923 6.48255 1.69405 1.40968 6.36068 1.26742 0.832128 0.328195 0.169203 0.135358 0.0984568 0.439983 0.018617 0.066994 0.000331887 9.98685e-06 7.10543e-15
threshold=112.50000000000001 359.50000000000006 81.500000000000014 159.50000000000003 3.5000000000000004 9.5000000000000018 15.500000000000002 15.500000000000002 39.500000000000007 0.45000000000000007 16.500000000000004 0.43000000000000005 790.50000000000011 66.500000000000014 1.0000000180025095e-35 15.500000000000002 3.5000000000000004 0.55500000000000016 133.50000000000003 482.50000000000006 230.50000000000003 15.500000000000002 0.46210000000000007 0.6150000000000001 0.39500000000000007 72.500000000000014 0.43000000000000005 14.500000000000002 385.50000000000006 0.61365000000000014 0.54500000000000015 1.0000000180025095e-35 4.5000000000000009 0.63000000000000012 0.50500000000000012 0.37120000000000003 10.500000000000002 0.33500000000000008 153.50000000000003 436.50000000000006 322.50000000000006 60.500000000000007 9.5000000000000018 0.65000000000000013 443.50000000000006 0.52500000000000013 63.500000000000007 508.50000000000006 387.50000000000006 4.5000000000000009 17.500000000000004 0.43000000000000005 0.57000000000000017 40.500000000000007 0.65000000000000013
decision_type=2 2 2 2 2 2 2 2 2 2 2 2 2 2 2 2 2 2 2 2 2 2 2 2 2 2 2 2 2 2 2 2 2 2 2 2 2 2 2 2 2 2 2 2 2 2 2 2 2 2 2 2 2 2 2
left_child=1 2 3 4 11 6 -6 -7 20 23 -11 13 18 -1 29 17 -13 22 19 24 21 -5 -16 -10 43 41 -27 -28 -29 -4 -31 45 33 37 -33 -22 38 -20 39 -34 -17 48 46 -2 -30 -26 -43 -39 49 -3 53 -52 -40 -50 -51
right_child=12 25 14 8 5 7 -8 -9 9 10 -12 16 -14 -15 15 40 -18 -19 32 -21 35 -23 -24 -25 31 26 27 28 44 30 -32 34 36 -35 -36 -37 -38 47 52 -41 -42 42 -44 -45 -46 -47 -48 -49 50 54 51 -53 -54 -55 -56
leaf_value=-0.00057154087742114783 -0.0068944621101431633 0.0055293442445160969 -0.013813792391472665 0.0063878454077240174 -0.0033608010700032038 0.0035273781053878996 -0.011544414668378376 -0.0024828696092811663 -0.0058540154234337574 0.0045302870274294459 -0.002840232400170803 0.0064139648081941204 0.007036754218382151 0.0053408847276155656 -0.0050595608132079977 -0.013854522194107861 0.0019619694249918447 -0.0075675949798398867 -0.010438534319740423 0.0047839463159998303 0.0054519907929215664 0.0027233602747630944 0.0058948395624360793 -0.012338849695429291 -0.012408683198152652 -0.012988017476812139 -0.002308416774849777 0.0013743852029151605 0.0052418267112335128 -0.0061225243742093882 -0.01331428854110194 -0.0072570822270321715 -0.013817600278177944 -0.0081814385953786935 -0.011688059740672623 0.0068756119184126795 -0.010594875913447543 -0.013848398747054142 -0.013849360737211649 -0.0076092029090462209 -0.0099250274226710296 0.0059716221415828906 0.00092931025720758458 -0.003507383364072328 0.0069524562855364539 -0.013831618373311408 0.0070366964234608457 -0.012799126837198154 0.0070366964234608457 0.0070366964234608431 0.0065668489532251344 0.0070371294526878148 -0.013813754410288844 0.0070409609198152237 0.0070366964234608457
leaf_weight=349.30666050314903 5.5567131638526899 6.4357662200927761 15.242314338684084 66.9505794942379 270.0203093290329 200.28959661722183 78.595755219459534 254.25347749888897 34.121829941868782 181.20051538944244 85.325507178902626 97.950690552592278 4.7303324192762366 51.431831389665604 4.4024999737739625 6.9194458574056608 113.98135866224766 6.9415551871061316 7.7260534763336244 4.2103635519742957 42.115453273057938 140.33992032706738 16.816815733909607 14.0151339918375 5.9524117857217815 5.2918525338172904 6.7349783331155768 5.1212925910949698 8.1098144799470884 7.3381337374448803 8.7561779767274839 4.7144756913185111 16.856895685195926 5.3913896083831778 9.5472894757986051 93.130383506417274 6.8318936824798575 9.2277210056781751 7.151234805583953 5.6019075214862815 4.543990358710289 4.5547969937324586 5.5505941808223715 5.4912945330142975 57.616201043128967 12.694501012563704 20.566418766975403 4.6087029576301566 77.741062939167023 14.807821512222292 10.502267584204672 27.15006186068058 77.135437905788422 16.673254430294037 4.7302763164043418
leaf_count=1635 25 31 66 324 1236 953 344 1169 154 866 392 468 23 243 20 30 531 31 34 20 202 669 81 62 26 23 31 24 39 33 38 21 73 24 42 448 30 40 31 25 20 22 26 25 280 55 100 20 378 72 51 132 334 81 23
internal_value=0 0.1842 0.0545051 0.103519 -0.114799 -0.433191 -1.04116 0.0330965 0.573851 0.130848 0.434139 0.302586 -2.29896 0.0374551 -1.37738 -0.588719 0.803918 0.17277 -2.39188 -1.79657 0.980805 0.781383 0.724413 -1.54842 -2.0603 1.20805 0.882893 1.1203 1.27068 -2.37463 -2.00705 -2.4021 -2.59591 -2.31161 -2.04466 1.28646 -2.66338 -2.48047 -2.69823 -2.45381 -2.45938 1.35085 1.15466 -1.04219 1.34828 -2.67548 1.36872 -2.69978 1.38892 1.33264 1.39999 1.38119 -2.76336 1.40749 1.40734
internal_weight=0 2415.58 2143.99 2073.03 1415.83 803.159 348.616 454.543 657.199 314.663 266.526 612.671 193.429 400.738 70.9609 39.6243 211.932 28.1609 188.698 48.167 342.536 207.29 21.2193 48.137 43.9567 271.586 82.8741 77.5823 70.8473 31.3366 16.0943 32.9087 140.531 26.9539 14.2618 135.246 113.577 21.5625 106.745 22.4588 11.4634 188.712 30.6718 11.048 65.726 18.6469 25.1212 13.8364 158.041 25.9739 132.067 37.6523 84.2867 94.4143 19.5381
internal_count=12176 11328 10015 9696 6579 3702 1580 2122 3117 1474 1258 2877 848 1878 319 182 999 132 825 214 1643 993 101 216 194 1313 397 374 343 137 71 144 611 118 63 650 493 94 463 98 50 916 148 50 319 81 122 60 768 126 642 183 365 459 95
shrinkage=0.005


Tree=16
num_leaves=57
num_cat=0
split_feature=3 4 3 4 3 8 3 8 3 0 8 8 4 4 4 6 8 3 0 8 2 3 4 1 2 3 0 8 4 1 2 6 7 0 0 0 2 4 2 3 4 3 7 0 4 2 3 3 4 7 3 0 0 8 0 0
split_gain=1090.06 318.54 148.733 210.997 186.437 205.785 187.677 153.087 117.945 133.425 105.13 80.0032 113.268 75.7317 65.6267 54.9026 55.651 28.7542 75.6965 27.8091 25.9132 22.4899 34.4754 16.6118 15.0332 12.5685 67.7672 18.3471 5.45315 4.38795 8.1166 3.15774 2.64606 3.01927 2.43379 2.11906 1.82385 1.75477 1.67527 1.65837 5.98753 1.4073 6.33365 1.24845 0.830783 0.322386 0.169012 0.132623 0.098375 0.439345 0.0186433 0.204844 0.00111762 2.27948e-06 1.42109e-14 7.10543e-15
threshold=112.50000000000001 359.50000000000006 81.500000000000014 159.50000000000003 2.5000000000000004 9.5000000000000018 11.500000000000002 15.500000000000002 46.500000000000007 0.55000000000000016 16.500000000000004 3.5000000000000004 15.500000000000002 16.500000000000004 790.50000000000011 1.0000000180025095e-35 15.500000000000002 16.500000000000004 0.33000000000000007 15.500000000000002 0.55500000000000016 133.50000000000003 482.50000000000006 0.46210000000000007 0.39500000000000007 72.500000000000014 0.43000000000000005 14.500000000000002 385.50000000000006 0.61365000000000014 0.54500000000000015 1.0000000180025095e-35 4.5000000000000009 0.63000000000000012 0.67000000000000015 0.51000000000000012 0.33500000000000008 191.50000000000003 0.49500000000000005 153.50000000000003 436.50000000000006 60.500000000000007 9.5000000000000018 0.65000000000000013 443.50000000000006 0.52500000000000013 63.500000000000007 153.50000000000003 387.50000000000006 4.5000000000000009 40.500000000000007 0.47000000000000003 0.57000000000000017 17.500000000000004 0.43000000000000005 0.53000000000000014
decision_type=2 2 2 2 2 2 2 2 2 2 2 2 2 2 2 2 2 2 2 2 2 2 2 2 2 2 2 2 2 2 2 2 2 2 2 2 2 2 2 2 2 2 2 2 2 2 2 2 2 2 2 2 2 2 2 2
left_child=1 2 3 4 11 6 -6 -7 17 19 -11 13 -13 -1 21 29 20 37 -19 -10 23 22 24 -17 43 41 -27 -28 -29 54 -31 45 33 36 -33 -34 -23 -5 -18 40 -37 48 46 -2 -30 -26 -43 -38 49 -3 53 -52 -41 -50 -4 -51
right_child=14 25 15 8 5 7 -8 -9 9 10 -12 12 -14 -15 -16 16 38 18 -20 -21 -22 32 -24 -25 31 26 27 28 44 30 -32 34 35 -35 -36 39 47 -39 -40 52 -42 42 -44 -45 -46 -47 -48 -49 50 55 51 -53 -54 -55 -56 -57
